%YAML:1.0
---
opencv_ml_ann_mlp:
   format: 3
   layer_sizes: [ 3, 10, 2 ]
   activation_function: SIGMOID_SYM
   f_param1: 6.6666666666666663e-01
   f_param2: 1.7159000000000000e+00
   min_val: -9.4999999999999996e-01
   max_val: 9.4999999999999996e-01
   min_val1: -9.7999999999999998e-01
   max_val1: 9.7999999999999998e-01
   training_params:
      train_method: BACKPROP
      dw_scale: 9.9999997764825821e-03
      moment_scale: 9.9999997764825821e-03
      term_criteria:
         iterations: 100000
   input_scale:
      - 1.0939571391053073e+01
      - -2.7009717607361998e+00
      - 4.8574389836832061e+00
      - -1.8586392773503349e+00
      - 3.4497703607155361e+00
      - -8.0522125475657091e-01
   output_scale:
      - 5.2631578947368418e-01
      - 4.9999999999999994e-01
      - 5.2631578947368418e-01
      - 4.9999999999999994e-01
   inv_output_scale:
      - 1.8999999999999999e+00
      - -9.4999999999999996e-01
      - 1.8999999999999999e+00
      - -9.4999999999999996e-01
   weights:
      -
         - -4.6924054290002343e-01
         - -2.6807221455805974e-01
         - -3.4874655987068187e-01
         - -9.4894558377831817e-01
         - -3.8313877702474208e-01
         - 2.3046517598133091e-02
         - 3.0193080062695776e-01
         - 7.7007306424718119e-02
         - -3.1195780543225898e-01
         - -2.9069057298885398e-01
         - 2.1799675365675936e-01
         - -7.4167377038609206e-02
         - 1.5968351197617595e-01
         - -7.1383814174177063e-01
         - 2.1253321683493215e-01
         - -4.6374048342178620e-01
         - -1.3525137965643910e-01
         - -1.0832266428220203e+00
         - 4.2846647415966232e-01
         - 2.6742360728443465e-01
         - -2.1007692603549560e-01
         - 4.6099665867537565e-01
         - 3.1325668870502960e-01
         - -2.3925511576653204e+00
         - -2.7308348880125916e-01
         - -7.2793374857238224e-01
         - -3.2682428933329738e-01
         - -5.2979247030518806e-01
         - 1.9587414258436242e-01
         - 1.6314247085400399e-01
         - 5.2923901852196642e-01
         - 1.3831251119042406e-01
         - 1.0023364364553997e-01
         - 1.8934895203680133e+00
         - -6.7086016148368732e-02
         - 5.5645377812289532e-01
         - -2.3538625210088318e-01
         - -1.6854392057124565e-01
         - -4.3829795854526504e-01
         - 4.5514708198005138e-01
      -
         - -8.9100863531004515e-01
         - 5.4921401825996541e-01
         - -6.8452619608295706e-01
         - -1.2475539513367673e-01
         - 2.8108993079432343e-01
         - 3.2059320159884735e-01
         - 1.5000425088604163e+00
         - -1.5346595099014237e+00
         - -7.0701124102414348e-01
         - -3.4024267161633842e-01
         - 1.0442083515028984e+00
         - -9.6643746460188640e-02
         - -8.4673535513885900e-02
         - -6.4919257543493736e-01
         - -8.4877154494883644e-01
         - 8.2088661858761247e-01
         - 2.3179862691501643e-01
         - 9.3487613220143220e-03
         - 5.0035569582775252e-01
         - 5.7675234341797454e-01
         - -2.4980840104985186e-01
         - -2.3671098579772626e-01
