%YAML:1.0
---
opencv_ml_ann_mlp:
   format: 3
   layer_sizes: [ 7, 15, 2 ]
   activation_function: SIGMOID_SYM
   f_param1: 6.6666666666666663e-01
   f_param2: 1.7159000000000000e+00
   min_val: -9.4999999999999996e-01
   max_val: 9.4999999999999996e-01
   min_val1: -9.7999999999999998e-01
   max_val1: 9.7999999999999998e-01
   training_params:
      train_method: BACKPROP
      dw_scale: 9.9999997764825821e-03
      moment_scale: 9.9999997764825821e-03
      term_criteria:
         iterations: 100000
   input_scale:
      - 4.8682030391380122e+00
      - -1.6495283332289279e+00
      - 8.4499829734422924e+00
      - -1.4083305334456910e+00
      - 1.0188372009115033e+01
      - -9.7618821829178326e-01
      - 1.1976089735604209e+01
      - -1.2728077025730387e+00
      - 6.6489422017489863e+00
      - -8.1642825838549515e-01
      - 1.6233929541689584e+01
      - -3.3977992682826663e-01
      - 1.4369782658313769e+01
      - -4.1438443881137421e-01
   output_scale:
      - 5.2631578947368418e-01
      - 4.9999999999999994e-01
      - 5.2631578947368418e-01
      - 4.9999999999999994e-01
   inv_output_scale:
      - 1.8999999999999999e+00
      - -9.4999999999999996e-01
      - 1.8999999999999999e+00
      - -9.4999999999999996e-01
   weights:
      -
         - -3.0657748935753517e+00
         - 3.4602989593780635e+00
         - -1.5262276528730762e-01
         - -1.0598493418882786e-01
         - -2.4689634535188687e+00
         - -2.6540019911063224e+00
         - -3.6569907192754440e-03
         - 9.9588278702272492e-01
         - 1.1082482338484021e+00
         - -1.2255383905274337e+00
         - -2.9991547692503020e+00
         - 1.5036642707001585e-01
         - 1.4430079156391442e+00
         - 7.4303492465043752e-01
         - 1.6831706503128674e+00
         - 1.7180124317981891e+00
         - 1.4886397708042391e+00
         - 1.1611627794146016e-01
         - -2.9179654938863769e-01
         - -1.2793507137326336e+00
         - -3.9978479005509215e+00
         - 1.1002542382602687e+00
         - -1.6786978387269830e-01
         - 8.7151195775720713e-01
         - 1.8668944383474675e-01
         - -1.6115275492355727e+00
         - -1.0321719172056052e+00
         - 1.1052690864108350e+00
         - -2.6196049246374598e+00
         - 1.0863477858750485e+00
         - -5.4488912926671706e-01
         - 5.4195511239164676e-02
         - 5.8350309433471706e-02
         - 1.4334788671796730e-01
         - -5.2198144727709295e-01
         - 1.3295307531218437e-01
         - 3.1100679449053059e-01
         - 2.9251351966988324e+00
         - -6.6390353503850683e-02
         - -8.4377661413709204e-01
         - 3.0914670805734007e-01
         - -2.0040243596577545e-01
         - -4.7988956504513214e-01
         - 8.0241981796371353e-01
         - 1.1203430031348149e+00
         - -3.8046204380299359e-01
         - 1.9704739090115133e+00
         - -3.8699711283996098e-03
         - -7.9156544211388513e-02
         - 1.2298523462227358e+00
         - 4.3627474624082057e+00
         - 8.4150354821257822e-01
         - -1.3566678697652483e+00
         - -1.1251790905773726e+00
         - 2.5533387255496880e+00
         - 2.9149505266808626e+00
         - 6.5319856229661533e-01
         - 9.8064890108131120e-01
         - -1.2191596703259944e-01
         - -3.1128015921858099e+00
         - -2.9919659265277367e-02
         - 1.8818032322312259e+00
         - 3.1938953330479213e-02
         - -9.7861288631428422e+00
         - 3.6404071062730523e+00
         - 8.2508678727909668e-01
         - 2.6136045115403339e-01
         - -4.3820806421950770e-02
         - -3.7846691795607995e-01
         - -2.1113675543051778e+00
         - -1.0795457921762905e+00
         - -1.8763123694580552e-01
         - 9.6214886938047894e-01
         - 1.3467225412168775e+00
         - 2.7478580109140444e-01
         - -4.5780273255727433e-01
         - -9.0229909013992182e-01
         - -2.3062025739404801e-01
         - -1.4456946004273181e+00
         - 1.1341675213717426e+00
         - -8.8048376454384969e-01
         - -4.0722191279835801e-01
         - 3.6964698864196033e-01
         - 4.9152143414724486e-01
         - -1.0573796683272283e+00
         - -5.4086671549361487e-01
         - 9.3664702468682759e-01
         - -2.5827176307582950e-01
         - 9.3308988010128768e-01
         - 8.9126458372124084e-01
         - 7.7327479773718732e-01
         - 3.6252876021947583e-01
         - -2.9478183800567957e-02
         - -8.1253802246869442e-02
         - -3.9510165578525586e-01
         - 1.9139474385570450e+00
         - -1.5956401046005659e+00
         - -1.7601334055534514e+00
         - 2.0174339041702458e-01
         - 2.1802468007209068e+00
         - 2.9282630145183961e+00
         - -1.4845675681218795e-01
         - 5.0841700597017980e-01
         - 7.7997660858746820e-01
         - -2.4053790941888340e+00
         - 2.2610889110796313e+00
         - 2.8293336589343188e-01
         - -3.0643537401569587e-01
         - -9.5844112243530866e+00
         - 2.6910017168652698e+00
         - 3.7330029473220643e+00
         - -4.1402194488060146e-01
         - -1.1485275323274173e+00
         - -1.6320812390820705e+00
         - -3.7776635174919415e-01
         - 3.2118286130155695e+00
         - -1.2309148748266348e+00
         - 1.0058342755921466e+00
         - 4.3298529045871448e-01
         - 3.3916179644155015e-01
      -
         - -1.3428466025349581e+00
         - 1.3315220412318147e+00
         - -1.0159029938511028e+00
         - 1.0018552359695749e+00
         - 5.5435083190144951e-01
         - 6.2630210873920411e-01
         - 3.6612502920011032e+00
         - -3.6483895646144964e+00
         - 9.2431980070508912e-01
         - -9.0734718932430758e-01
         - -2.1349317112174995e+00
         - 2.1560680195285582e+00
         - 1.2265869030326626e+00
         - -1.2637770008115574e+00
         - -1.0443231679813136e+00
         - 1.0439433401521894e+00
         - -1.1090563097869732e+00
         - 1.2617003632232184e+00
         - 9.8974437315957786e-01
         - -9.9528712759166638e-01
         - 2.2907100238266618e+00
         - -2.2910938162027779e+00
         - -9.8667558815705458e-01
         - 1.2372246707499353e+00
         - 1.1907185777779505e+00
         - -1.1376966598334879e+00
         - 1.1598507497416661e+00
         - -1.1684103138917918e+00
         - 1.7728533737265246e+00
         - -1.7552427033721558e+00
         - 2.0421958653551378e+00
         - -1.6002388627121660e+00
