%YAML:1.0
---
opencv_ml_ann_mlp:
   format: 3
   layer_sizes: [ 3, 10, 2 ]
   activation_function: SIGMOID_SYM
   f_param1: 6.6666666666666663e-01
   f_param2: 1.7159000000000000e+00
   min_val: -9.4999999999999996e-01
   max_val: 9.4999999999999996e-01
   min_val1: -9.7999999999999998e-01
   max_val1: 9.7999999999999998e-01
   training_params:
      train_method: BACKPROP
      dw_scale: 9.9999997764825821e-03
      moment_scale: 9.9999997764825821e-03
      term_criteria:
         iterations: 100000
   input_scale:
      - 8.4186110350269541e+00
      - -2.2923404619643426e+00
      - 8.3703631169488553e+00
      - -2.6112401742840956e+00
      - 4.3723976997255276e+00
      - -8.0577523673838836e-01
   output_scale:
      - 5.2631578947368418e-01
      - 4.9999999999999994e-01
      - 5.2631578947368418e-01
      - 4.9999999999999994e-01
   inv_output_scale:
      - 1.8999999999999999e+00
      - -9.4999999999999996e-01
      - 1.8999999999999999e+00
      - -9.4999999999999996e-01
   weights:
      -
         - -9.9418270890139215e-01
         - -1.5789809503906334e+00
         - -1.9181078905410240e+00
         - -4.5514353828919845e+00
         - -2.4016970170765450e+00
         - -1.2564069022503424e+00
         - -1.2695873314167723e+00
         - 1.4995786998374137e+00
         - -1.3134334009086552e+00
         - -3.2739592351698610e+00
         - 2.0797580761776854e-01
         - 2.6662429982134500e-01
         - 2.3053736873292507e-01
         - -6.1955506688060080e-01
         - 5.3468989874598671e+00
         - -7.4959546139220123e-01
         - -6.0923625017299265e-01
         - -6.4826137058970481e+00
         - 5.9681066311063080e-01
         - 3.4780035360633907e+00
         - -3.3146782877416583e+00
         - 1.0871511606497173e+00
         - 1.2887791961493453e+00
         - -7.9156969470327256e+00
         - 7.6424544924607429e-01
         - -1.4609988436989296e+00
         - -1.1188130001058503e+00
         - -1.0319410048845259e-01
         - 2.3660942271161955e-01
         - 1.8673476448172306e+00
         - 2.1133089479098404e+00
         - -6.2078567159668019e-01
         - -3.8230761329403135e-01
         - 7.5672911885589391e+00
         - 2.2436337674345130e-01
         - -1.3684176835256896e+00
         - -1.1367437699900951e+00
         - -8.3140937107020918e-01
         - -7.6355817799838877e-01
         - -4.2601005978488116e-01
      -
         - -7.6974388295988239e-01
         - 7.5247793327719503e-01
         - -4.5673688800658840e-01
         - -2.5100540496358908e-01
         - -2.0468998873922561e-02
         - 6.2223776782306495e-01
         - 1.5938844674573447e+00
         - -1.5598879919712281e+00
         - -2.1117881211388307e+00
         - 2.0733790533579355e+00
         - 7.2977860949462359e-01
         - -1.8977093084392407e-01
         - -3.8148111410001606e-01
         - -2.5803670478203933e-01
         - -1.3848082080535447e+00
         - 1.3573979971397314e+00
         - 3.1564362626551007e-01
         - -2.3307762060126516e-01
         - 9.0179912593739475e-01
         - -8.8470130982013029e-01
         - 2.8439121546355012e-01
         - -4.0538040922779262e-01
