%YAML:1.0
---
opencv_ml_ann_mlp:
   format: 3
   layer_sizes: [ 3, 20, 2 ]
   activation_function: SIGMOID_SYM
   f_param1: 6.6666666666666663e-01
   f_param2: 1.7159000000000000e+00
   min_val: -9.4999999999999996e-01
   max_val: 9.4999999999999996e-01
   min_val1: -9.7999999999999998e-01
   max_val1: 9.7999999999999998e-01
   training_params:
      train_method: BACKPROP
      dw_scale: 9.9999997764825821e-03
      moment_scale: 9.9999997764825821e-03
      term_criteria:
         iterations: 100000
   input_scale:
      - 8.4186110350269541e+00
      - -2.2923404619643426e+00
      - 8.3703631169488553e+00
      - -2.6112401742840956e+00
      - 4.3723976997255276e+00
      - -8.0577523673838836e-01
   output_scale:
      - 5.2631578947368418e-01
      - 4.9999999999999994e-01
      - 5.2631578947368418e-01
      - 4.9999999999999994e-01
   inv_output_scale:
      - 1.8999999999999999e+00
      - -9.4999999999999996e-01
      - 1.8999999999999999e+00
      - -9.4999999999999996e-01
   weights:
      -
         - -2.9604639404422628e-01
         - 1.0497577827520344e+00
         - -1.2020322059706501e+00
         - -1.3875570734102052e+00
         - -9.8272271100116149e-01
         - 5.5643229192436672e-01
         - -1.6307208080345605e+00
         - 4.1334212285310123e-01
         - 1.2829742097828087e+00
         - 1.4889370899141086e+00
         - -2.4498723521827168e+00
         - 6.1363929988226895e-01
         - 2.7953312658715457e+00
         - -5.1025061505036584e-01
         - 4.4214795093297110e-01
         - -8.0770280544819284e-01
         - 1.3625566637532471e+00
         - -1.9416598746562770e+00
         - -3.5261838387227623e-01
         - 4.3570519717683914e-01
         - -8.5087578568633471e-01
         - 6.7136077443934428e-01
         - 3.0024872507513840e+00
         - -8.7935761643021970e-01
         - -4.1851315752265594e-01
         - -3.9295176971876106e-01
         - -1.0376467438460912e+00
         - -8.6986389852798063e-01
         - 1.1491691228152006e+00
         - 1.1452937508549048e+00
         - -4.8306609826918773e-01
         - 1.4592393570498068e+00
         - 8.6801118028425628e-01
         - -3.8191241879893523e-01
         - -1.2794567949536445e-01
         - -2.4431907041998566e+00
         - 7.9886577702818629e-01
         - -8.6447222663099232e-01
         - -7.4653640124245735e-01
         - -5.6494019903646764e-01
         - -1.1174220958111536e+00
         - 9.6619477198662462e-01
         - 1.1726910109328939e+00
         - -1.1828952437495559e+00
         - -7.1526021287604435e-01
         - -3.4302593169499865e-02
         - -1.5577275565798310e+00
         - -5.4944348512188845e-01
         - 1.5831837705914193e+00
         - 1.7616201638998821e+00
         - -1.8580254919289849e+00
         - 3.0616257891065424e-01
         - 3.9442030848332190e+00
         - -1.1070342376244877e+00
         - 5.5243364252154514e-01
         - -3.2343862377552539e+00
         - 1.4788634697083187e+00
         - -1.7062011883068746e+00
         - -5.4698832136065278e-01
         - 1.6831225115843620e-01
         - 9.1817530110205803e-01
         - 8.4835765139205899e-01
         - -6.5417117470171293e-01
         - 3.5217369248364133e-02
         - -1.2469511716652455e-01
         - 3.9079629107167030e-01
         - 1.6487538418745920e-01
         - -1.4503871567997653e-01
         - 5.7329343234245622e-01
         - 1.1330547014147586e-01
         - 1.0157652130536423e+00
         - 9.2561432371244612e-01
         - -4.6795428164103763e+00
         - -7.0917098956422064e-02
         - 2.2974939297625532e-01
         - -5.4224892419028628e-02
         - 2.1340173132989290e-01
         - 1.0906791500770698e+00
         - -2.4797480143202127e-01
         - 2.2071932427298513e-01
      -
         - -7.6334617280597039e-01
         - 6.4799805415312162e-01
         - -2.8667317786877489e-01
         - -1.0741541899217065e-01
         - -5.1409288099413430e-01
         - 5.1648848665621194e-01
         - -1.0524540030973142e-01
         - -5.1681359195986631e-01
         - -5.4389847184595774e-01
         - -6.3030973955583802e-01
         - -1.8799762811702131e-01
         - -3.4970899400220085e-01
         - 1.1821686212928750e+00
         - 7.5269228816096503e-02
         - -4.1151190639134339e-01
         - 2.7702338366475215e-01
         - -4.7053070150963944e-01
         - 4.1303575527514441e-01
         - -3.8639793803922839e-01
         - 8.1807031132562935e-01
         - -1.6912841900075866e+00
         - 1.7450245945238592e+00
         - 6.6037577142057091e-01
         - -4.5289905745439885e-01
         - -1.7407343179690862e+00
         - 1.6879646771731718e+00
         - -2.5870883067316058e-01
         - 1.9324329363603882e-01
         - -3.5603859215026307e-01
         - -2.6641810574845698e-01
         - -7.6990966507936931e-01
         - 6.9789307992615912e-01
         - -3.1640918356606507e-01
         - 3.3613736212604578e-01
         - 7.0351774749375928e-01
         - -9.6077178636755045e-01
         - 2.3696806107108093e-01
         - 7.6297791632141543e-01
         - 3.6554082954539752e-01
         - 1.7929178799829165e-01
         - -2.0377800421838707e-01
         - 4.3692516916481211e-01
