%YAML:1.0
---
opencv_ml_ann_mlp:
   format: 3
   layer_sizes: [ 3, 15, 2 ]
   activation_function: SIGMOID_SYM
   f_param1: 6.6666666666666663e-01
   f_param2: 1.7159000000000000e+00
   min_val: -9.4999999999999996e-01
   max_val: 9.4999999999999996e-01
   min_val1: -9.7999999999999998e-01
   max_val1: 9.7999999999999998e-01
   training_params:
      train_method: BACKPROP
      dw_scale: 9.9999997764825821e-03
      moment_scale: 9.9999997764825821e-03
      term_criteria:
         iterations: 100000
   input_scale:
      - 8.4186110350269541e+00
      - -2.2923404619643426e+00
      - 8.3703631169488553e+00
      - -2.6112401742840956e+00
      - 4.3723976997255276e+00
      - -8.0577523673838836e-01
   output_scale:
      - 5.2631578947368418e-01
      - 4.9999999999999994e-01
      - 5.2631578947368418e-01
      - 4.9999999999999994e-01
   inv_output_scale:
      - 1.8999999999999999e+00
      - -9.4999999999999996e-01
      - 1.8999999999999999e+00
      - -9.4999999999999996e-01
   weights:
      -
         - -1.6935368498355756e+00
         - -4.7299194450389948e-01
         - 1.1354482782410937e+00
         - -4.9488460054332584e-01
         - -2.8533995335263240e+00
         - 9.2083000136190085e-01
         - -1.7012165617231552e+00
         - -1.4827970800026721e-02
         - 8.9086620917170101e-01
         - -7.9893451069187238e-01
         - 2.8045110960593117e-01
         - -2.7043598323097484e+00
         - -3.7234481534595004e-01
         - -2.5616194972220269e-01
         - 1.5732376485622621e-01
         - -3.2958194264252567e-02
         - -1.8325782892030384e-01
         - 1.1963894716152395e+00
         - -5.4974255680839701e-01
         - -5.2170127422346868e-01
         - -7.2402448650874596e-01
         - -9.4301206284193306e-01
         - -2.8233347918469626e-01
         - 2.6694412181961664e+00
         - 7.6491818494811570e-01
         - -3.2643977037791011e-01
         - -1.4739368648415216e-01
         - 4.7022653019309513e-01
         - 1.8992216325017824e-01
         - 2.9618524464709160e-02
         - -1.0474073501604488e+00
         - 3.5934835869696802e-01
         - 1.2275838223630797e+00
         - -3.1599041894944419e-01
         - -4.0463476734966282e+00
         - -6.0648395307186409e-01
         - -1.4606371938182210e+00
         - -4.8265446837711956e-01
         - 2.0880276068921804e+00
         - 2.7851833167557605e-01
         - 2.7227588692868877e-03
         - -1.7796925456028814e+00
         - -5.5067674203449449e-02
         - -1.2510763596266312e+00
         - 1.1089235394328780e+00
         - 1.3988133152917628e+00
         - 1.3577266063835197e-01
         - 5.1944683089669308e-01
         - 1.6959298146035595e-01
         - 4.4718757359682453e+00
         - 4.3070678189014633e-01
         - 6.1749232358636286e-01
         - 9.2711493353332772e-02
         - 1.3560510712074222e-01
         - -1.6729794480021404e-01
         - 2.4572978839302589e-01
         - 1.7361324098721862e+00
         - 2.3644546822807208e-01
         - -8.0419633079705233e-02
         - 3.9298931807524268e-01
      -
         - 9.5049538950776147e-01
         - -1.0198167629588102e-01
         - -4.4400058640120049e-01
         - -4.2441411912586452e-01
         - -5.5613567209901227e-01
         - 5.9429200433957441e-01
         - -1.9717518681338767e-01
         - 3.3042878257024511e-01
         - 1.6700000680731115e+00
         - -1.6823095231947469e+00
         - -1.4128526693486354e-01
         - -9.5561716935972141e-01
         - 7.9647427823756789e-01
         - -5.5639656029917317e-01
         - -8.4813643068761901e-01
         - -2.3023874214511375e-01
         - 5.3169755124799167e-01
         - -4.7294374285426272e-01
         - -7.5442999816178202e-01
         - -5.0899529295874602e-01
         - -1.4320322515304101e-01
         - 4.3001386242079809e-01
         - -1.4448334766994924e+00
         - 9.4278111602411618e-01
         - 3.3664208304295795e-01
         - -2.2243704710232304e-01
         - -8.4736817492654415e-01
         - 1.6791043616143021e-02
         - -2.5719549361162297e-01
         - -8.1238274292082779e-01
         - -2.1536099744438550e-01
         - 3.4127268378317549e-01
