%YAML:1.0
---
opencv_ml_ann_mlp:
   format: 3
   layer_sizes: [ 49, 10, 2 ]
   activation_function: SIGMOID_SYM
   f_param1: 6.6666666666666663e-01
   f_param2: 1.7159000000000000e+00
   min_val: -9.4999999999999996e-01
   max_val: 9.4999999999999996e-01
   min_val1: -9.7999999999999998e-01
   max_val1: 9.7999999999999998e-01
   training_params:
      train_method: BACKPROP
      dw_scale: 9.9999997764825821e-03
      moment_scale: 9.9999997764825821e-03
      term_criteria:
         iterations: 100000
   input_scale:
      - 1.2258458713529496e+00
      - -1.4309393094880702e+00
      - 1.2686023819145475e+00
      - -1.4887780770139885e+00
      - 1.2566255600020471e+00
      - -1.4445152398605048e+00
      - 1.2627423701906757e+00
      - -1.4254418578288222e+00
      - 1.3156854038031331e+00
      - -1.4485190206471301e+00
      - 1.3415036625648658e+00
      - -1.4853283264686712e+00
      - 1.3070590637117925e+00
      - -1.4597587477980571e+00
      - 1.3151374860480229e+00
      - -1.4624581732166413e+00
      - 1.2975491366254839e+00
      - -1.5096485147277265e+00
      - 1.2716873124367034e+00
      - -1.4979009179836758e+00
      - 1.2956909053759615e+00
      - -1.5498456525403903e+00
      - 1.2382224765326169e+00
      - -1.5061071412590916e+00
      - 1.2001800835652814e+00
      - -1.4800297544746344e+00
      - 1.1702284450462361e+00
      - -1.4481576987662019e+00
      - 1.1166314830551327e+00
      - -1.3990104016621250e+00
      - 1.0719942027241327e+00
      - -1.3807079143335703e+00
      - 1.0260304130896440e+00
      - -1.3461716273297011e+00
      - 9.7694670506016867e-01
      - -1.3076055783996203e+00
      - 9.2590948323615141e-01
      - -1.2740158341907188e+00
      - 8.7693359752348166e-01
      - -1.2184317750666460e+00
      - 8.0852053268289503e-01
      - -1.2092823906490842e+00
      - 7.5846209405827680e-01
      - -1.2299483829652902e+00
      - 7.1796812586169867e-01
      - -1.2906167370245110e+00
      - 7.3801644677738032e-01
      - -1.7822387518715435e+00
      - 7.3062505362047925e-01
      - -1.5971885144305251e+00
      - 7.6042985362583460e-01
      - -1.5855693585542971e+00
      - 8.0137067482639956e-01
      - -1.5568936929817094e+00
      - 8.3169085718195723e-01
      - -1.4926451745284721e+00
      - 8.3931715062714585e-01
      - -1.3921366155810679e+00
      - 8.6440841523866008e-01
      - -1.3452355940601264e+00
      - 9.0124733075367969e-01
      - -1.3735355918118128e+00
      - 9.3690205570601226e-01
      - -1.3580575421262211e+00
      - 9.6160897993015548e-01
      - -1.3712174155697892e+00
      - 9.8276566037952540e-01
      - -1.3461054604294402e+00
      - 1.0965817732949479e+00
      - -1.4861846188551795e+00
      - 1.1272166491279674e+00
      - -1.5222843996839828e+00
      - 1.1322133052285472e+00
      - -1.5252219473123394e+00
      - 1.1449919135942235e+00
      - -1.5005999680417865e+00
      - 1.1650237251725817e+00
      - -1.4747631936659538e+00
      - 1.2152717579396572e+00
      - -1.5237638138940306e+00
      - 1.2454886687320244e+00
      - -1.5466813543303342e+00
      - 1.2186814156940198e+00
      - -1.4618317883692002e+00
      - 1.1841263089491179e+00
      - -1.4437232215004014e+00
      - 1.2065225076940735e+00
      - -1.4733495945184445e+00
      - 1.1949642734640080e+00
      - -1.4236160881615263e+00
      - 1.1950473022419026e+00
      - -1.4127987075260071e+00
      - 1.2011512380747655e+00
      - -1.3905635463536685e+00
      - 1.2372085566095949e+00
      - -1.4459874925249625e+00
      - 1.2231299619950529e+00
      - -1.4136559676298468e+00
   output_scale:
      - 5.2631578947368418e-01
      - 4.9999999999999994e-01
      - 5.2631578947368418e-01
      - 4.9999999999999994e-01
   inv_output_scale:
      - 1.8999999999999999e+00
      - -9.4999999999999996e-01
      - 1.8999999999999999e+00
      - -9.4999999999999996e-01
   weights:
      -
         - 1.0061020287395059e+00
         - -4.3821490665835877e-01
         - 1.5451876583918188e-02
         - -5.8651813788349660e-01
         - 9.1550780940710411e-02
         - 2.1134572645485664e-01
         - 2.7074119128780365e-03
         - -2.0830014522097384e-01
         - 1.1925400949561626e+00
         - -6.5209359397620825e-01
         - -3.8117374084937677e-01
         - -5.1128523718155139e-01
         - -7.9127364763120614e-02
         - -1.7400672258365529e-01
         - 3.2817017744073762e-01
         - -2.2625409919747888e-01
         - -6.7009976533044094e-02
         - 2.0384139850886690e-02
         - -3.0586761435578214e-01
         - -2.9578817003684543e-01
         - -1.0915482044046272e+00
         - -6.0672423454890811e-01
         - -1.0523056584672796e-01
         - -6.0908736341491125e-02
         - 2.0687756233863019e-01
         - -5.3632465101660642e-01
         - -8.9297891027614248e-02
         - 5.6150570766520214e-01
         - -6.6304061927767721e-01
         - -2.1337046866403553e-01
         - -1.3965028629024590e+00
         - -2.0997326036233185e-01
         - 2.1354045577309885e-01
         - 3.9300909032889836e-01
         - 7.2167361791360921e-02
         - 3.8793158084624785e-01
         - 1.9609052353705758e-01
         - 1.8419035616887183e-01
         - 3.2980615566770199e-01
         - -7.5689653141065527e-01
         - -1.2362083246893349e+00
         - -1.2386324868921020e-01
         - -4.1523153346515546e-02
         - 4.2405374103433191e-01
         - -7.7004549294305169e-01
         - -3.5336612573919041e-01
         - -4.5416794511414851e-02
         - 3.3970163607062759e-02
         - 6.3553290279247709e-01
         - -7.7263454703895573e-01
         - -4.5341528319339058e-01
         - 7.3570339176013477e-01
         - 1.9443285959831064e-01
         - 8.4180076807559479e-01
         - -5.2142871144352432e-01
         - -3.4428700458920458e-01
         - 1.9496371537058890e-01
         - -3.2103154286794122e-01
         - 1.1134494373255373e+00
         - -1.2876534321176981e-02
         - -7.5438496803798727e-01
         - -2.7219677395810676e-01
         - -1.7887752187450856e-01
         - 3.3772007470649296e-01
         - 3.5940744066463576e-01
         - -5.3234294870296872e-01
         - -1.6739035546771452e-01
         - 9.3332361756544482e-02
         - 3.8091408169264884e-01
         - 1.2582597930655379e+00
         - -1.7310757864785122e+00
         - -1.9593683640789736e-01
         - 3.8765086411066144e-02
         - 4.1349198149241972e-01
         - -7.7491985774224426e-01
         - -7.7728326847281892e-01
         - 2.1907552196992031e-02
         - -1.6790735379043489e-01
         - -4.8665394070874907e-01
         - -6.4247115170931890e-01
         - 4.1518787532493862e-01
         - -1.3247791938316216e+00
         - 3.7217877756144019e-02
         - 2.0409633339281696e-01
         - 4.3646030832989108e-01
         - 9.1903065378642457e-02
         - 4.5269668818611539e-02
         - -1.4904417273358325e-01
         - -9.7931791619103403e-01
         - -8.1272211713230003e-01
         - 3.8715728275517131e-01
         - -1.0512766449591847e-01
         - 1.5661329653669401e-01
         - 6.3565806646197465e-01
         - 7.6007129066067410e-03
         - 6.0532931253520472e-01
         - 1.5457586596143200e-01
         - -1.5123706410606663e-01
         - 2.5558082446174024e-01
         - 9.8585522996266203e-02
         - -4.4506605675481828e-02
         - 7.1200597486385020e-02
         - 3.7144116633541713e-01
         - 6.1625721668024280e-01
         - 2.0034008827037530e-01
         - -9.7575661334723368e-02
         - 3.8055118227107843e-01
         - -5.9087290164188044e-01
         - 6.1613330252515280e-02
         - -3.9231735382850530e-01
         - 5.8578797635743574e-01
         - -2.9480746438365496e-01
         - 3.6036311610224353e-01
         - 2.5595618527989561e-01
         - -5.2824814632089390e-01
         - 4.6880834440321409e-03
         - 3.3940327317239238e-01
         - -3.3086788671081363e-01
         - -2.0319291409596582e-01
         - -3.2648100537188035e-01
         - 6.2446673403789732e-01
         - 1.6019768285011826e-01
         - -2.4244226321933314e-02
         - -2.7887937496716048e-02
         - 2.0653552275249062e-01
         - -2.4248855731245547e-01
         - -3.3472920915179074e-03
         - -1.7548294781466867e-01
         - -1.5801964814316767e+00
         - -1.3435822889753418e-01
         - -1.4057736422936432e-02
         - 2.6026967644270532e-01
         - 2.3948951499580012e-01
         - -6.2364375541696812e-02
         - -3.9501588966625595e-01
         - -6.2775221796295702e-02
         - 2.3832976431451136e-01
         - 5.4216508569220973e-02
         - 2.2863539567638974e-01
         - 7.0771603532088478e-01
         - -5.9640109037262767e-01
         - -5.0861240225950022e-01
         - 3.2020508893709904e-01
         - 2.2433476308861255e-01
         - 3.8910946650528605e-01
         - -6.2342417827672547e-01
         - 3.1939090814946386e-01
         - -6.7781239480739330e-02
         - 1.0739597718089680e+00
         - -2.9065671638243185e-01
         - -3.4451261022375235e-01
         - -5.2155842194260116e-01
         - 4.0020532298679651e-01
         - -4.7219853706645543e-01
         - -2.2049013653717475e-01
         - 4.1118412696652173e-01
         - 3.8900327863726186e-01
         - -3.2234977094834005e-01
         - 5.4482912424310059e-01
         - -7.4367014608560389e-01
         - 5.0275711108052834e-01
         - -2.8901302317960775e-01
         - 1.7803018891627795e-01
         - -2.7482394135471472e-01
         - 3.9153934179110028e-01
         - -1.5701219376780595e-01
         - 2.0122339406906703e-01
         - -1.2403264909200153e-01
         - -8.5683783244369441e-02
         - -1.8687852115990029e+00
         - -8.3065600555489769e-02
         - -7.9462524723496586e-01
         - -2.3887741497504689e-01
         - -7.6260878754238914e-01
         - 2.8281220707005872e-01
         - -8.4705994091165993e-01
         - -2.6857305979075979e-01
         - 1.0251177254876058e-01
         - -2.8218614816263803e-02
         - 1.3046791767917612e+00
         - -3.6478854792633089e-02
         - 2.2770296110679258e-01
         - -2.0456986817597439e-01
         - -1.1949209720487811e-01
         - 3.9012433997750035e-01
         - -9.0628422180632551e-01
         - -1.8037773985185221e-01
         - -3.0180498043926057e-01
         - 4.0200085267456075e-02
         - 5.8667814411191940e-02
         - -1.3503180335093843e+00
         - 2.3806894917681887e-01
         - 1.8953265202882855e-01
         - 5.2044309021901998e-02
         - -3.6359599033160145e-01
         - -2.9888293985858749e-01
         - 1.7548957724184810e-01
         - -3.6768155259930529e-01
         - 8.6688250888377305e-01
         - -3.6960255255049163e-01
         - -6.4205221051985603e-02
         - -2.5676364448079592e-01
         - -3.7923517935701417e-01
         - 2.0654778805742333e-01
         - 3.5331319820692497e-01
         - 1.4095521459655876e-02
         - -3.7413285812376945e-01
         - 1.0208949252243964e-01
         - -5.4831396348286920e-01
         - 1.7557085678018380e-01
         - -8.5862396469595303e-01
         - -5.8380289099662130e-01
         - 1.6011455621819482e-02
         - 1.1564289830824365e-01
         - -2.4134669720993737e-01
         - -2.9067254556044325e-01
         - 1.7319267737365689e-02
         - -3.5960360889526650e-02
         - -1.1638869057819941e+00
         - -1.1452877547876880e-01
         - 1.3959271886315008e-01
         - 4.2096224285954048e-01
         - -2.4346701349310784e-01
         - -4.0868485992037490e-01
         - -3.3252362584855111e-01
         - -2.5782392204384463e-01
         - -2.4227808374243939e-01
         - -8.7679288249882345e-02
         - -1.4899759347061228e+00
         - -5.5948503787278170e-01
         - 2.3062638372610342e-01
         - 2.2161142694980523e-01
         - -2.3811799574956163e-01
         - -5.7590440733189840e-01
         - 1.5119469650313206e+00
         - 5.1761358326855444e-01
         - -2.3943732691263070e-01
         - 1.7315393633234612e-02
         - -3.7581483057614079e-01
         - 6.6596414808738336e-01
         - 7.5236368526285136e-01
         - -4.9020731366251002e-01
         - -3.7818665571352661e-01
         - -6.4339488989096416e-01
         - 1.2667370764450359e+00
         - 6.3529327117988721e-01
         - -3.7966068268006764e-01
         - -1.5659261134195093e-01
         - -8.8723631858703667e-01
         - 1.2848383569686364e+00
         - 6.9721963790972508e-01
         - 4.8055372438659488e-01
         - -5.2926410018868408e-01
         - -4.6590115406512111e-01
         - 1.1408258382363330e+00
         - 5.6807158922398016e-01
         - -5.0604937991953669e-01
         - -3.7326449617818280e-01
         - -1.0116946305020234e+00
         - -4.3861619087264669e-01
         - -2.1680600218173535e-01
         - 1.8056400579894130e-01
         - -3.0229575098393563e-01
         - -2.4897298533316603e-01
         - 6.4187509382238583e-01
         - 2.7285402767395628e-01
         - -3.1346980242702710e-01
         - 1.9692842396522256e-01
         - -9.0403314278214164e-01
         - 2.6433637244829594e-01
         - -5.4247630195901220e-01
         - 7.2623562958895910e-02
         - -1.0994937568091918e-01
         - -3.5908407795649394e-01
         - -5.6681004211881481e-01
         - 6.7054399596272074e-02
         - -1.0910373107080794e-01
         - 9.3957898644656854e-02
         - 4.0948248060402753e-01
         - -5.4967821644667725e-01
         - 4.5869399831152607e-01
         - -4.5776168444777426e-01
         - -2.3817486090263021e-01
         - 4.6826856816640278e-01
         - -7.9053973211254136e-01
         - 7.5335601386919537e-01
         - -2.5412318700003367e-01
         - -4.2029782970566854e-01
         - 2.3777525600674229e-01
         - -7.3816423025915567e-01
         - 2.5730428904070629e-01
         - 8.1956406146914607e-01
         - -2.3946833963489195e-01
         - 3.8100897381821558e-01
         - -8.7622219334845952e-01
         - 6.1074538261559341e-02
         - -2.4566133210845853e-01
         - -3.0474001656014622e-02
         - -1.8428456584244576e-01
         - 2.6558017463875683e-01
         - -4.7781763114570336e-01
         - -1.5184689655265410e-01
         - -9.4182969756351057e-02
         - 5.7747853428453333e-01
         - -1.8321959511865504e-01
         - -5.8384277052292055e-01
         - -7.6777188664103532e-02
         - 2.2845366588319946e-01
         - 1.6851950917771308e-02
         - 2.7897844142622708e-01
         - 2.4862547388763293e-01
         - -1.0009308778587904e+00
         - -3.9846802456665392e-01
         - 6.4662551805757668e-02
         - -4.7220753426323037e-02
         - -5.1952055319549861e-01
         - -4.0614337137094336e-01
         - 2.7656490342732026e-01
         - -1.3151611918083855e-01
         - 3.0998693146613038e-03
         - -2.0714836413578730e-01
         - -7.4848072395006113e-02
         - -2.3649198815331815e-01
         - 1.7464859976467786e-01
         - -7.5543849826656773e-01
         - 1.5283152375296752e-01
         - -2.4434714824420611e-01
         - -2.5246413837236973e-02
         - 1.2962808814604758e+00
         - -8.2112781670399260e-02
         - -2.6840882622275875e-01
         - -2.1765811671124211e-01
         - -7.7118093548840416e-02
         - 6.6427404492646780e-01
         - -1.5526212409552398e+00
         - -3.2242200694030454e-01
         - -7.9044383574117291e-02
         - -1.6612815495506214e-01
         - 1.5626839448290772e+00
         - -9.1260092324166417e-02
         - 1.6103068225644952e+00
         - -9.2448321224003704e-01
         - -3.8290716943290487e-01
         - 4.0888725032598716e-01
         - 5.1470840941968155e-01
         - 1.3400389187911921e-01
         - -3.8041155943989235e-01
         - -2.2491469825176907e-01
         - -1.6018807673733859e+00
         - 1.4441974062266745e+00
         - 3.0605072515596665e-01
         - 8.5426506262809654e-01
         - 5.1528232893894660e-02
         - 5.5500421418753076e-01
         - -4.2432094817248228e-01
         - 2.7427145938208757e-02
         - 5.2399182142995347e-02
         - -7.2315291148351435e-01
         - -1.2539241184164180e+00
         - 3.9479926792484960e-01
         - 1.3571315818241350e-01
         - 4.7472494731939952e-01
         - 7.9771698572603189e-02
         - 8.0181093373447466e-03
         - -6.6811640713309217e-01
         - -1.7880295608762656e-01
         - 7.1068075652634469e-02
         - -7.6845659749316020e-01
         - -5.4568079888995868e-01
         - -7.7868288158848176e-01
         - -9.8536709228047725e-01
         - 3.2050060903183863e-01
         - -6.0101810536461728e-02
         - 1.0332300718284869e-01
         - -5.1671652474624977e-02
         - -9.6230676327055886e-01
         - -5.9161518976337230e-02
         - -4.5909074975981556e-01
         - -3.0851973713371023e-01
         - -3.6154879640337023e-01
         - 6.5001364821569041e-01
         - -1.3740160946821653e+00
         - -4.5210248102225320e-01
         - 4.9593143743133306e-01
         - -4.1522476121234414e-01
         - 7.8338241539032005e-01
         - -4.4716044886487694e-01
         - 7.4610722343044134e-01
         - 6.8725413585987749e-01
         - -9.5136852978017572e-01
         - -8.6762666831183344e-01
         - 3.4166860954696787e-01
         - -2.6962236889128316e-01
         - 1.1368226732401048e+00
         - -6.9423157622319076e-01
         - 4.9067968249991711e-01
         - -2.8104216160955658e-01
         - 4.3071513127990874e-01
         - 1.2335702116153420e+00
         - 2.8786069251718782e-01
         - 6.0611895700757523e-01
         - -1.0450946762514761e+00
         - -6.9031293702286903e-02
         - -1.7975298638768279e-02
         - -9.6380228536819837e-02
         - -2.7848715437948707e-01
         - -5.8931406213794960e-02
         - 1.7706845718347461e-01
         - 3.2152816887066904e-01
         - -7.0302203059229151e-01
         - 7.8806986938867229e-01
         - -2.7998067414796712e-01
         - 1.7634223808917091e-01
         - 1.1337007337342708e-01
         - 1.8641928607762401e-01
         - 1.6278708431797217e-01
         - 1.7357090722005511e-01
         - -3.7149503371095066e-01
         - 8.4516971733702229e-01
         - -2.6376918765804314e-01
         - -5.2780051785033455e-01
         - 1.9084340218072007e-01
         - 1.2434495344011566e-01
         - 6.0309712143815586e-01
         - 7.7311675608334163e-01
         - 3.1999768168602710e-01
         - 1.4673769606398843e-01
         - -5.1219033148650983e-01
         - -7.3386452852783879e-01
         - -7.5269753824221708e-01
         - 3.0938498383769691e-01
         - -2.0626982537331273e-01
         - 6.4678072065805225e-02
         - -2.5577531918004104e-01
         - -7.6645635322186789e-01
         - 7.0539469859935011e-01
         - 3.8010345043012136e-02
         - -1.3406206536995613e-01
         - 1.0393606767450270e+00
         - -1.8264995676705078e+00
         - -4.1421444519162209e-01
         - 4.3726178770525392e-01
         - -3.2721200038319603e-02
         - -2.2542736276469397e-01
         - -6.6281634676964096e-01
         - -2.3343395112069613e-03
         - -3.6184614242965894e-02
         - 8.5941687352827839e-02
         - 6.0063710411420268e-01
         - 3.4095985831062897e-01
         - 2.2965693950348370e-01
         - -2.5071793095901235e-01
         - -1.9390987759814657e-01
         - 1.3409150308871187e-01
         - 7.6302082850080299e-01
         - -1.0970604040980574e+00
         - -1.6818973065449541e-01
         - -3.3307071580794274e-02
         - -8.4200552948583440e-01
         - 5.4367975933017276e-01
         - -7.6442168189320880e-01
         - -7.5788310663407421e-01
         - -1.0593680289415625e-01
         - -5.2446190262682291e-01
         - -4.5316657571845792e-01
         - -1.4456645450617513e+00
         - -1.3753448995423179e-01
         - 6.1881635329366802e-02
         - -8.9358066909832445e-01
         - 7.8049926479600285e-01
         - 2.3756958414338927e-01
         - -6.6165740628448277e-01
         - -5.3973660989940508e-01
         - -1.7310323388367602e-01
         - 8.8446596709264980e-01
         - -9.2509467779547094e-01
         - -5.0532047494136278e-01
         - 2.3045133953935470e-01
         - -2.1128850394645302e+00
         - 8.6988080238148602e-01
         - -4.3921713777749011e-01
         - 2.3294012408384182e-01
         - 7.5952487321198983e-02
         - -6.1141448195334003e-01
         - -7.6769456960216365e-01
         - 1.6291376256894452e-01
         - 5.6623662974783114e-02
         - -3.5331025520428128e-01
         - 1.5607952566031782e+00
         - -1.2284621794750772e+00
         - -7.1647206536964092e-01
         - -2.7097832931846133e-01
         - -4.5595257365321107e-01
         - -7.3827034305010919e-01
         - 7.3229298299198398e-01
         - -1.3195615692555474e+00
         - -4.4497304990541908e-01
         - -1.0282617977026594e-01
         - 4.3040791423153317e+00
         - 8.1188661250156946e-01
      -
         - -1.3831518843921760e+00
         - 1.3808303374196993e+00
         - -2.3641561437275915e+00
         - 2.3626816262681132e+00
         - -2.1021807743754473e-01
         - -5.4361293214429252e-01
         - -1.2271560624256672e+00
         - 1.2231742732827815e+00
         - -9.8983376145045077e-01
         - 9.8564765360992235e-01
         - 1.8736958278835101e+00
         - -1.8697829286866232e+00
         - 5.6159167466673865e-01
         - 1.9143082599967437e-01
         - -1.2069424699082920e+00
         - 1.2038971926209672e+00
         - 1.4112237407032071e+00
         - -1.4101898548599037e+00
         - 2.4766058978835028e+00
         - -2.4754426773699048e+00
         - -4.4085818459655590e-01
         - 4.3750475603393557e-01
