%YAML:1.0
---
opencv_ml_ann_mlp:
   format: 3
   layer_sizes: [ 49, 7, 2 ]
   activation_function: SIGMOID_SYM
   f_param1: 6.6666666666666663e-01
   f_param2: 1.7159000000000000e+00
   min_val: -9.4999999999999996e-01
   max_val: 9.4999999999999996e-01
   min_val1: -9.7999999999999998e-01
   max_val1: 9.7999999999999998e-01
   training_params:
      train_method: BACKPROP
      dw_scale: 9.9999997764825821e-03
      moment_scale: 9.9999997764825821e-03
      term_criteria:
         iterations: 100000
   input_scale:
      - 1.2142704528303114e+00
      - -1.4128036665484196e+00
      - 1.2576119477746868e+00
      - -1.4688907487791945e+00
      - 1.2450693755666193e+00
      - -1.4181340119799890e+00
      - 1.2560220145332257e+00
      - -1.4023485695687943e+00
      - 1.3080906393981198e+00
      - -1.4271268820476011e+00
      - 1.3335612586751839e+00
      - -1.4755855246562168e+00
      - 1.2960157158138297e+00
      - -1.4379294313266693e+00
      - 1.3070011269358657e+00
      - -1.4475037449653376e+00
      - 1.2836941407965710e+00
      - -1.4858759672068897e+00
      - 1.2623646707091933e+00
      - -1.4820161199138029e+00
      - 1.2846110833703530e+00
      - -1.5306140978726219e+00
      - 1.2245269312495055e+00
      - -1.4865756880410130e+00
      - 1.1868337094595844e+00
      - -1.4580251992670143e+00
      - 1.1579388035220053e+00
      - -1.4277385419473820e+00
      - 1.1070907028630979e+00
      - -1.3866311002219796e+00
      - 1.0626404521664983e+00
      - -1.3697435391056560e+00
      - 1.0175632342083605e+00
      - -1.3314814846228089e+00
      - 9.6684507104559714e-01
      - -1.2902547349490454e+00
      - 9.1636828064952658e-01
      - -1.2540499888736185e+00
      - 8.6753274258966417e-01
      - -1.2024003780750268e+00
      - 7.9912596294453253e-01
      - -1.1942937491437597e+00
      - 7.4638509989653434e-01
      - -1.2020531999133031e+00
      - 7.0646137209045301e-01
      - -1.2631529283289413e+00
      - 7.2614459306989643e-01
      - -1.7529130444678924e+00
      - 7.1961670506286068e-01
      - -1.5734419222314375e+00
      - 7.4874739204991148e-01
      - -1.5626358027675975e+00
      - 7.8736349921104520e-01
      - -1.5259104542906357e+00
      - 8.1747704075469074e-01
      - -1.4600139908411180e+00
      - 8.3638120513368908e-01
      - -1.4001021325830578e+00
      - 8.5932599522004038e-01
      - -1.3439858543985206e+00
      - 8.9561240486514870e-01
      - -1.3725260061852278e+00
      - 9.3238573613003228e-01
      - -1.3542902768661014e+00
      - 9.5795109717777016e-01
      - -1.3679541614597106e+00
      - 9.8475055592892125e-01
      - -1.3619100138312150e+00
      - 1.0954382659324846e+00
      - -1.4925346317830874e+00
      - 1.1286085144670661e+00
      - -1.5360361815635515e+00
      - 1.1312841670024758e+00
      - -1.5334556745150338e+00
      - 1.1430669318995916e+00
      - -1.5042760724325761e+00
      - 1.1627600553163795e+00
      - -1.4755424990035826e+00
      - 1.2118517232285384e+00
      - -1.5251153896381242e+00
      - 1.2429468717473926e+00
      - -1.5487117969371873e+00
      - 1.2118321500829303e+00
      - -1.4548044909017075e+00
      - 1.1788068695366907e+00
      - -1.4369655663066283e+00
      - 1.2005193425402612e+00
      - -1.4616322948915934e+00
      - 1.1901565991187804e+00
      - -1.4150961932309201e+00
      - 1.1906924193966035e+00
      - -1.4020403217103765e+00
      - 1.2003011676272757e+00
      - -1.3779457377174584e+00
      - 1.2336189929020305e+00
      - -1.4303812147699033e+00
      - 1.2094887588087591e+00
      - -1.3945405313008830e+00
   output_scale:
      - 5.2631578947368418e-01
      - 4.9999999999999994e-01
      - 5.2631578947368418e-01
      - 4.9999999999999994e-01
   inv_output_scale:
      - 1.8999999999999999e+00
      - -9.4999999999999996e-01
      - 1.8999999999999999e+00
      - -9.4999999999999996e-01
   weights:
      -
         - -4.4232152687248355e-01
         - 1.9468417774504358e-02
         - 4.9081821746075741e-02
         - -7.7714312960696741e-01
         - -8.1264157706360629e-01
         - 2.8514127634394288e+00
         - -1.2788129239047266e+00
         - -7.8522915508077706e-01
         - 5.0829873260544077e-02
         - 4.0054075207954142e-02
         - -5.9619601175803894e-01
         - 5.4770847445196902e-01
         - 5.1605960801250628e-01
         - -2.2579558020633575e-01
         - -3.7060276429226552e-01
         - -4.8179971054361351e-02
         - -5.2429130205502904e-02
         - -3.9128778906036438e-01
         - -8.2722282274890835e-01
         - -2.2479156434573930e+00
         - 4.7394209818910105e-01
         - -2.6255139573056474e-01
         - 1.3300583601596705e-01
         - 1.2782499703862188e-01
         - 7.8171273725824345e-02
         - -3.9710797250426866e-01
         - 1.1427092219452277e+00
         - -5.0757329808452889e-01
         - -4.0112596983938542e-01
         - 3.7734555881242288e-01
         - 4.0984900107608091e-01
         - -4.9343340891198506e-01
         - -2.9949427703168702e-01
         - 1.9096283286159714e+00
         - -1.3673004571477514e+00
         - 4.9269842730507857e-01
         - 7.2998539888714187e-02
         - 7.6575009291371801e-02
         - -7.9611859172109967e-01
         - 1.4795340414012903e-01
         - 1.2400949545963882e+00
         - -1.7888090006780258e-01
         - -4.7320258623683872e-02
         - -3.0758108288591529e-01
         - -3.4004537239094085e-01
         - -7.1292158894719113e-02
         - 3.4443121462969406e-01
         - -3.6144865479613780e-01
         - 7.1404716599225226e-01
         - -8.3457287579521244e-01
         - -2.4943881408091645e-01
         - -2.4118116424021704e-01
         - 3.0499426790810391e-01
         - -3.6980387127024927e-01
         - -1.5386562827832049e+00
         - 2.2693545384004480e-02
         - 6.0440708725569378e-02
         - 1.4562208968034274e-01
         - 1.3769086668400021e-01
         - 9.6164392916318064e-01
         - -6.5360768716949003e-01
         - -8.5130922175932366e-01
         - -2.2644891089114974e-01
         - 5.1214958463378424e-01
         - 1.8757941879530460e-01
         - 1.9699974270398166e-01
         - 1.4314449619121417e+00
         - -4.0943760837481363e-03
         - -3.3919930667448595e-03
         - -3.9654298256976250e-01
         - 2.5135598280799526e-01
         - 2.0482331993205954e-01
         - 2.1296600531641377e-01
         - 4.6965931190025789e-01
         - -5.4027040157891415e-01
         - 1.0949002842255067e+00
         - 4.8547449541396046e-02
         - 2.9356870132838375e-01
         - 1.0104596118714884e-01
         - 1.0970088920429828e-01
         - 1.3715661396975352e+00
         - -1.4870308521235351e-01
         - -1.3060181116145428e-01
         - 3.7342006479234533e-04
         - 2.4426841306757735e-01
         - -2.6223209005969417e-01
         - -2.9319709172022473e-01
         - 8.4948420075615005e-01
         - -9.7903057101278779e-02
         - -2.7102034582480914e+00
         - 1.5418913890681425e+00
         - -4.3061002758675859e-02
         - -5.5944530724747463e-02
         - -4.9404970249142095e-02
         - -5.3827385190246513e-01
         - 1.5443870143587074e-01
         - 9.2385152872783516e-01
         - -5.5417843721893922e-01
         - 3.3480112272967943e-01
         - 1.2340209610876365e-01
         - 1.3988733284048271e-01
         - 9.8381286237294002e-02
         - -3.9005117607714863e-02
         - 1.3638722734226130e+00
         - -5.1392879517615730e-01
         - 4.6002362357489579e-01
         - -9.4042045472536154e-02
         - -9.4721463197425429e-02
         - -2.6438937783585936e-01
         - -7.9728877518153185e-01
         - 1.9625551663233145e+00
         - -9.7771835349532732e-01
         - 3.3423314044482300e-01
         - -1.0189659745361511e-01
         - -1.1436930387884843e-01
         - 4.2487606703509562e-01
         - -4.7591600339708745e-01
         - -7.8519983611412203e-01
         - 8.7948354882472035e-01
         - -2.8596443073417160e-01
         - 8.2735609163791773e-02
         - 9.3634344906836295e-02
         - 9.1550533145857238e-01
         - 5.7044987091445942e-01
         - 2.2543502038186744e-01
         - 3.5464636295276125e-01
         - -5.6415316998090936e-01
         - -1.0181108411868671e-01
         - -1.3837562445729404e-01
         - 3.1664601968814481e-02
         - 6.1850416433539757e-01
         - -1.1808075295077363e+00
         - 1.9066620045231879e+00
         - -1.3362100925767693e+00
         - -2.0505789669746569e-01
         - -1.9336330688074249e-01
         - 9.1947432154711728e-01
         - 1.6073279937201262e-01
         - 5.4968232446119736e-01
         - 7.7499535941789521e-01
         - -8.4055959050496920e-01
         - -5.0127868308315249e-01
         - -4.7754039919381686e-01
         - 4.1706251257213595e-01
         - -7.5175819142286637e-01
         - -5.3350414163104221e-01
         - 7.7030062929854404e-01
         - -1.4465908524105049e+00
         - -2.8793848014310147e-01
         - -3.2201147192920121e-01
         - 1.1156700435161320e+00
         - -1.1962164958299826e+00
         - -2.4243791063604712e+00
         - 7.6386169172026941e-01
         - -1.1824235614547849e+00
         - -5.6470736541606004e-01
         - -5.6886550830518412e-01
         - 1.4471597537786374e+00
         - -2.1453570637644170e+00
         - -2.2178966955817159e+00
         - 1.1575330487989204e+00
         - -6.8788088436047312e-01
         - 6.8279515177717659e-02
         - 5.0458701523520479e-02
         - 1.1012126590071003e+00
         - -8.8934737067808234e-01
         - -1.5836159632864033e+00
         - -3.3970832076208525e-02
         - -1.0262095719343955e-01
         - -9.0510626804665942e-02
         - -6.0171866353445728e-02
         - 1.0868469697415839e+00
         - -1.0126011546023801e+00
         - -9.7486071071251645e-01
         - -7.2206200325748843e-02
         - -9.4988234840211017e-01
         - 1.6675880977815777e-01
         - 1.6613995157314748e-01
         - 8.2957749692310578e-01
         - -1.9179012105670905e+00
         - -1.0341645384578755e+00
         - -7.7271999882001030e-01
         - -5.1028063162387771e-01
         - 3.0907524289293598e-01
         - 2.9684443167025726e-01
         - -2.5170896319448477e-01
         - -2.1852850781796027e-01
         - -6.3597221026282369e-01
         - -3.4053181946061828e-01
         - 3.3383468762709384e-01
         - -2.2911995877142269e-01
         - -2.1490603729778801e-01
         - -3.0326567378831981e-01
         - 4.5091003000593127e-01
         - -5.7936245991763347e-01
         - 7.1811910742806032e-02
         - -3.1093210811713695e-01
         - -2.3666911639244473e-01
         - -2.3911498639452056e-01
         - -4.6975977081964138e-01
         - 5.9666008655384184e-02
         - 7.4236870101566399e-01
         - -6.6340461639820741e-02
         - 2.3259540432412105e-04
         - -2.2724429285368403e-02
         - -3.5278153907022367e-02
         - 3.1860212115903908e-01
         - 2.5641535405188359e-01
         - -8.3652364019313274e-01
         - 6.5593535150304916e-01
         - -1.0287752379926487e+00
         - 2.4247196409169822e-01
         - 2.4460431485916007e-01
         - 1.0547466230254356e+00
         - 1.2661086603786480e+00
         - -1.4927252947218876e+00
         - 5.4483067052013423e-01
         - -4.4638428164801619e-01
         - 8.6692627774312622e-02
         - 7.3458361257729476e-02
         - -6.9034594540410077e-01
         - -3.4781111416603305e-01
         - -8.1758209176880514e-01
         - 7.7849880333127974e-01
         - 5.1696442664443576e-01
         - 2.2578753336361232e-01
         - 2.4079644012006177e-01
         - 1.4187330167132447e-03
         - -4.0340601279329313e-01
         - 1.6058340935227120e+00
         - -1.4330274877886787e-01
         - 1.9776482697604911e-01
         - -1.6699907599426131e-01
         - -1.4734255617661360e-01
         - -4.8169924161888550e-01
         - -7.1258762507047033e-02
         - 2.7813783681067137e+00
         - -1.1116024283968162e+00
         - 6.2487936147577805e-01
         - -1.0990588855079793e-01
         - -1.2251831993324834e-01
         - -1.4136748960992561e-02
         - 2.0559190952124871e+00
         - -6.9865752582312457e-01
         - 7.9596336396105383e-01
         - 8.2219102224313145e-01
         - -8.2439732416840314e-02
         - -9.8371442776340662e-02
         - 2.6712452207731732e-03
         - 1.9727908383128972e-02
         - -6.8343094421668271e-01
         - 3.6449378923343928e-01
         - 4.7324758113519237e-02
         - -1.6657906050428925e-01
         - -1.5546778925948948e-01
         - -2.4361186853338898e-01
         - -8.2166458184027524e-01
         - 2.5563986537901939e-01
         - -4.3967842187036915e-01
         - -1.2231753640382876e+00
         - -2.2215707646058616e-01
         - -2.2491955984726072e-01
         - -6.3377803507726083e-01
         - -4.1483095507026280e-01
         - -8.8077655858557469e-01
         - 2.1728806950046420e-01
         - -5.6081790807587761e-01
         - 4.1686240867896962e-01
         - 4.2588871567985526e-01
         - -5.6121994294507725e-02
         - -6.8313830988052118e-02
         - 1.4599575929933539e+00
         - -3.6783429246216626e-01
         - -1.7682889114919723e-01
         - 4.6398850893314142e-01
         - 4.6535373310903805e-01
         - 1.3879086551103915e-02
         - -5.4201105043675127e-03
         - 7.9078128393272129e-01
         - 6.8716198781496665e-02
         - 1.6262581077581609e-02
         - 2.0801695832152245e-02
         - 1.4300313608285303e-02
         - 3.8073973480057449e-01
         - -6.6079906893527024e-02
         - 3.8876334789346462e-01
         - 3.4006437424948915e-01
         - 6.9363471860406090e-02
         - -3.8693604585201841e-01
         - -3.7162874558770087e-01
         - 4.6776347642048743e-01
         - -8.8590546130571601e-01
         - 1.4652972938555022e+00
         - 4.2870765190786742e-01
         - -3.5150889193511292e-01
         - -2.5611573037489760e-02
         - -3.2928439722214042e-02
         - 7.1942530381214764e-01
         - -1.4708208553439467e-01
         - -1.9188134085458366e+00
         - 7.1410708950672208e-01
         - 2.9907418089564236e-01
         - 8.2460903482372450e-02
         - 6.6739565565727896e-02
         - 4.6833066385978656e-01
         - -1.2232687099693065e+00
         - 1.2939908049117279e+00
         - -3.4166835277152052e-01
         - -2.1652270718206648e-01
         - -1.1850502481754975e-01
         - -1.0180675600320364e-01
         - 5.3104619760888383e-01
         - -4.8178045154253085e-01
         - 1.0045358298617126e+00
         - -7.8076390500540338e-01
         - 1.8923737272982336e-01
         - -3.2880036755457448e-01
         - -3.3136167772144998e-01
         - -2.9561875242625534e-03
         - 2.4748062940608920e-01
         - -8.7501677680952006e-01
         - 1.2686158403171037e+00
         - -1.2729209947893370e+00
         - -9.2991708011735036e-02
         - -1.0833812312954984e-01
         - 1.0881254185044558e+00
         - 3.6869065744557139e-01
         - -1.8626415110108074e+00
         - 1.2345902434858387e+00
         - -4.1866770319813490e-01
         - -2.3542456959093858e-01
         - -2.7774925645164872e-01
         - 4.1832557098802925e-01
         - 2.4106436165677639e-01
         - -2.7876640982651506e+00
         - 2.7767110041496865e+00
         - -1.3442223903905406e+00
         - -1.1426015315202272e-01
         - -8.9150545502248962e-02
         - 2.5030265809030866e-01
         - -1.1867389621551434e+00
         - 1.1247522673998238e+00
         - -4.7004932354673812e-01
         - 1.4308233300481883e+00
         - 1.0027203369929438e+00
         - 1.0441721577651490e+00
         - -1.2637641583601917e+00
         - 1.1745519916931022e+00
         - 5.0360258051809863e+00
         - -1.1498925001516387e+00
      -
         - -2.0085655693890776e+00
         - 2.0114706541352825e+00
         - -5.7550264866731127e-01
         - 1.1997955632259024e-02
         - -5.6407204106680500e-02
         - 6.2261432658188720e-01
         - 2.1076658350516553e+00
         - -2.1075540289292842e+00
         - 2.5765360209412012e+00
         - -2.5760386826839485e+00
         - 1.3814400358853998e+00
         - -1.3853242520397515e+00
         - -1.7793847144072914e+00
         - 1.7851913259955612e+00
         - -1.0038460044124695e-01
         - 9.5135288704897791e-02
