%YAML:1.0
---
opencv_ml_ann_mlp:
   format: 3
   layer_sizes: [ 49, 20, 2 ]
   activation_function: SIGMOID_SYM
   f_param1: 6.6666666666666663e-01
   f_param2: 1.7159000000000000e+00
   min_val: -9.4999999999999996e-01
   max_val: 9.4999999999999996e-01
   min_val1: -9.7999999999999998e-01
   max_val1: 9.7999999999999998e-01
   training_params:
      train_method: BACKPROP
      dw_scale: 9.9999997764825821e-03
      moment_scale: 9.9999997764825821e-03
      term_criteria:
         iterations: 100000
   input_scale:
      - 7.3584114724643690e-01
      - -1.2192887757461297e+00
      - 7.6929046339678775e-01
      - -1.2527895128324562e+00
      - 7.8795479229890431e-01
      - -1.2670312980089751e+00
      - 7.6885832636206342e-01
      - -1.2328643194016120e+00
      - 7.9925666407301799e-01
      - -1.2640244047512355e+00
      - 8.2881372639366713e-01
      - -1.3273451760762014e+00
      - 8.1802670302188274e-01
      - -1.3190680499682070e+00
      - 8.1515005413038877e-01
      - -1.2964961522030118e+00
      - 8.3935870818195635e-01
      - -1.3261867512979653e+00
      - 8.8294317901949304e-01
      - -1.3539933572112066e+00
      - 9.1808913662780856e-01
      - -1.4244152833570385e+00
      - 9.6009721324461894e-01
      - -1.4636681920346373e+00
      - 9.8208518133295641e-01
      - -1.4947336375301867e+00
      - 9.5539444821030783e-01
      - -1.4216269306513027e+00
      - 9.4552809738837451e-01
      - -1.4362571739308281e+00
      - 9.2466670566799802e-01
      - -1.3509380508632434e+00
      - 9.2184733397301066e-01
      - -1.3680214381762559e+00
      - 9.3339897713098297e-01
      - -1.3286934355450821e+00
      - 9.4599124520592703e-01
      - -1.3395236004768973e+00
      - 9.4246657376413190e-01
      - -1.3538532303191433e+00
      - 9.6687487676130213e-01
      - -1.3802138773559214e+00
      - 9.5526236405069087e-01
      - -1.4051909240811808e+00
      - 9.4514592876616466e-01
      - -1.3964531017242583e+00
      - 9.2083071299271835e-01
      - -1.3651315251509815e+00
      - 9.3351284288218839e-01
      - -1.4110046578989419e+00
      - 9.4082245571257173e-01
      - -1.4469849305491904e+00
      - 9.5046568107558371e-01
      - -1.4508858576863570e+00
      - 9.5305590281892194e-01
      - -1.4591285804841923e+00
      - 8.9449526522983569e-01
      - -1.3779699520611983e+00
      - 8.9797184696791710e-01
      - -1.3855705499429252e+00
      - 9.2419270938319076e-01
      - -1.4426648113045788e+00
      - 8.8617327441680493e-01
      - -1.3890765981407338e+00
      - 8.6892944523541771e-01
      - -1.3537920677525694e+00
      - 8.8563998074757655e-01
      - -1.3652140244364985e+00
      - 9.1533842775616614e-01
      - -1.3903990633596193e+00
      - 9.5355839644771700e-01
      - -1.4675263601121147e+00
      - 9.9282314258258864e-01
      - -1.4738459460210263e+00
      - 1.0323689419400162e+00
      - -1.5227441805929312e+00
      - 1.0116361268519829e+00
      - -1.4501803791895240e+00
      - 1.0182454777622403e+00
      - -1.4805289175956609e+00
      - 1.0029743490679548e+00
      - -1.4126893607384139e+00
      - 9.9526583526762502e-01
      - -1.4351733269219620e+00
      - 9.8435318426253970e-01
      - -1.3608682684421578e+00
      - 9.7205200132995717e-01
      - -1.3564985655094333e+00
      - 9.6461587936383764e-01
      - -1.3654137728985953e+00
      - 9.9129939476812368e-01
      - -1.4007060329606060e+00
      - 9.7472601642345091e-01
      - -1.4260241483453830e+00
      - 9.6479982881747739e-01
      - -1.4086077407287025e+00
      - 9.4088741399486020e-01
      - -1.4019222391411685e+00
   output_scale:
      - 5.2631578947368418e-01
      - 4.9999999999999994e-01
      - 5.2631578947368418e-01
      - 4.9999999999999994e-01
   inv_output_scale:
      - 1.8999999999999999e+00
      - -9.4999999999999996e-01
      - 1.8999999999999999e+00
      - -9.4999999999999996e-01
   weights:
      -
         - -4.1004184565921104e-01
         - 2.3002476721086951e-01
         - 4.7614167201568947e-01
         - 4.3713521852469989e-01
         - 4.5209361323076724e-01
         - 4.4828910546975381e-01
         - 4.9096501145558064e-01
         - 5.8792390912932646e-01
         - -7.4951227698436063e-03
         - 9.9034371729332205e-01
         - 4.8345934072079357e-02
         - -8.9232906077434032e-02
         - -1.1146352948341348e-02
         - 6.0501100612441594e-01
         - 2.5996469464093819e-01
         - 4.5430468037867128e-02
         - 3.3946965233236032e-01
         - 1.1272018549040421e+00
         - -1.6737096147071004e-01
         - 1.0256453241034518e+00
         - 8.7432115062393234e-01
         - 3.6879061246881606e-01
         - 3.9201462546850974e-01
         - 3.8561384618712347e-01
         - -7.5194454053195331e-02
         - 4.2412455840012608e-01
         - 4.3444168901577385e-01
         - 1.8675940499967074e+00
         - 1.0033884573315777e+00
         - 8.5819698529788335e-01
         - -6.8273394263854391e-03
         - 1.2198212527226948e-01
         - -2.1747631395210187e-01
         - 3.2350761014077800e-01
         - 1.5103873560629757e+00
         - 3.3992113731972096e-01
         - 2.6639211337979846e-01
         - -7.9442060823458838e-02
         - 2.4456113746302383e-01
         - 5.3177157186239721e-01
         - 1.1858352599168742e-01
         - 3.2757230192146602e-01
         - 3.3221951861719284e-01
         - 4.4594666991510812e-01
         - 2.6931584069857722e-01
         - 2.1501543141631724e-01
         - -7.3745396175106526e-01
         - 2.1877598150026700e+00
         - -9.1021310340287231e-01
         - 3.1901814520700789e-01
         - 1.2133372262994661e-02
         - -3.5741522770608269e-01
         - -9.6803367446261918e-02
         - 6.4561125096552763e-01
         - 6.5694663239257156e-01
         - 5.3342325248651756e-01
         - 3.1535019876317300e-01
         - 5.4490802936555705e-01
         - -3.5894327308450374e-01
         - 6.5450240220838629e-01
         - 4.7246149497821360e-01
         - 3.3739400077694237e-01
         - 1.8567763418822206e-01
         - 2.2277631084343205e-01
         - 9.1542699688690068e-02
         - 4.6194137192504875e-01
         - -6.4232847725082709e-01
         - -6.6604976749607259e-01
         - -1.9643572423608524e+00
         - 2.4450981100900585e-01
         - 5.4777277096693770e-03
         - -1.9279977004137586e-01
         - -1.6070648263771736e-01
         - 4.1053475580386212e-01
         - 1.5663228057223484e+00
         - 3.2365210442590336e-01
         - 4.1004263254823503e-01
         - 2.2903167342159342e-01
         - 2.0257628255505000e-01
         - 6.0131387684118265e-01
         - 2.8168145888077228e-01
         - 2.9781962766085085e-01
         - 8.2947616543459612e-02
         - 6.5197219324732700e-02
         - -2.2662892341326160e-01
         - 3.4813870995145108e-01
         - 3.2802352348162611e-01
         - -1.7035528747326958e-01
         - -1.2671090570552048e+00
         - 8.3917120032842007e-01
         - -2.3455778067797497e-02
         - 3.4259865298493575e-01
         - -3.5720459044924097e-01
         - 1.9511486179164869e-01
         - 1.0893763327768640e+00
         - 2.7756130188732070e-01
         - 2.6732279903859463e-01
         - -4.3841045816300017e-01
         - 7.2261183975517740e-01
         - -5.6182233237737154e-02
         - 3.5146398503122417e-01
         - 1.9746239790327358e-01
         - 2.3106795201490293e-01
         - 2.0014539730469899e-01
         - -4.3864628224508967e-01
         - 1.3355866155985921e-01
         - 3.6287069786488041e-01
         - -6.3980670608856061e-01
         - -1.6564476672577477e+00
         - 5.9812498209860776e-01
         - 3.7211514189824151e-02
         - 3.1436075504860700e-01
         - -3.1384191342069379e-01
         - 4.0132246486344614e-01
         - 1.2868750706387693e+00
         - 2.5291578698240569e-01
         - 1.7543358471412779e-01
         - -4.2083666797793112e-01
         - 7.1203615009563259e-01
         - 1.2470871312705765e-02
         - -5.5485395989170272e-01
         - 1.5101348762370229e-01
         - 2.4882978301083478e-01
         - 7.8409297402954492e-02
         - -4.1559441162058930e-01
         - -1.3979584605627692e-02
         - 1.3308348511695602e+00
         - 2.6993161818907696e-01
         - -6.5400377693014311e-01
         - -6.5215508482616619e-02
         - -1.2825928990890507e-02
         - 1.8022237338466404e-01
         - -3.0998379646946678e-01
         - 3.3262608111545411e-01
         - 2.7133253147323133e+00
         - -7.3682694509574695e-02
         - 6.7531601406992839e-02
         - -1.1502268171915382e+00
         - 7.5621974279717330e-01
         - -8.1676089983724331e-02
         - 2.3518370385509810e-01
         - 9.2614720738388140e-02
         - 3.0657120687187106e-01
         - 3.1799736609254264e-01
         - -1.6224056298701051e-01
         - -8.8746898412966874e-02
         - -1.2625159925135251e-01
         - 3.8443393565225792e-01
         - -5.0085513459412856e-01
         - -6.7565276280032460e-01
         - -1.0568576447327964e-02
         - -4.7477881795204147e-01
         - -2.6681534865198253e-01
         - 5.2918792331539366e-01
         - 8.0680281929120601e-01
         - 3.3889704690985828e-01
         - 1.1656229037474651e-01
         - -7.1821839932716958e-01
         - -9.8104334529964296e-02
         - 3.9342801337920696e-01
         - -3.8385881514059589e-01
         - 1.4834587167404170e-01
         - 2.4053516661728352e-01
         - 2.2922118817112747e-01
         - 1.7708880629183993e-02
         - -1.6433806556380808e-02
         - 7.7024053829569972e-01
         - 8.3265912613918092e-01
         - 1.2144206994597944e+00
         - -2.7585653582755715e-01
         - -6.1923138866397401e-02
         - -5.2116262056709362e-01
         - -2.5583235957130296e-01
         - 3.7370349807230141e-01
         - -6.9795101986483990e-02
         - 3.2729958993307870e-02
         - 9.2090570734146296e-02
         - -6.6519707928381111e-01
         - -2.4545441361302381e-01
         - 3.1258367523883168e-01
         - 1.9711838044649413e-01
         - 1.7598737011373394e-01
         - 2.0157957486463468e-01
         - 3.7558627174402170e-01
         - 2.1116917166231500e-01
         - 2.6031884220606272e-01
         - -6.0065461428554534e-01
         - 1.7537723833206517e-01
         - 1.0789937077123453e+00
         - 3.8798128563724305e-01
         - 1.0175006779994795e-02
         - -6.5205849926476112e-01
         - -1.7977302189047814e-01
         - 1.6064953289906514e-01
         - -4.7992587890028027e-01
         - 3.4928357950862360e-01
         - 2.3761875249425635e-01
         - 2.1850182493741382e-01
         - -5.1373646402093409e-01
         - 3.0749473098562785e-01
         - -2.6452330321788375e-01
         - 1.7910176237432809e-01
         - 2.0727470184566701e-01
         - 3.6739741033620982e-01
         - 3.4646762590478658e-01
         - 5.0932786013068956e-02
         - -5.2502948434272556e-01
         - 1.8371381328716607e-01
         - 1.0238220095639574e+00
         - 6.1008052353913234e-01
         - -2.5604910110412306e-02
         - -2.6578061089113747e-01
         - -1.0196697285020261e-01
         - -3.9127388722988925e-02
         - -6.2393248044769833e-01
         - 2.8908601181851945e-01
         - 1.7489155828260536e-01
         - 8.2370094750723111e-01
         - -5.2095573489264724e-01
         - 3.9269266895974847e-01
         - 3.9213195165266623e-01
         - 1.9599835266112214e-01
         - 3.5146522030147187e-01
         - 4.1371207913779934e-01
         - -2.7578589921399693e-01
         - 3.7630954294302593e-01
         - 3.0273413329656074e-01
         - -1.0340475831095468e+00
         - -1.2870013090676553e+00
         - 4.0870540866222133e-01
         - -5.1797069223856587e-02
         - -1.7203610859759391e-01
         - -3.6227471876752243e-01
         - 2.0126629321748260e-01
         - 1.4903962930010746e+00
         - 3.9632261231806637e-01
         - 3.1119619584225000e-01
         - -4.7577198241464602e-01
         - 3.1550780775446979e-01
         - -1.1953026934598111e-01
         - -8.8979328661843382e-02
         - -2.2814690836856714e-02
         - 2.3198467276770207e-01
         - 3.2992739521103281e-01
         - 3.5364717195386541e-01
         - -4.9984126598629663e-02
         - 3.7320630151725465e-01
         - -8.1165511112591482e-01
         - -1.4706195246596696e+00
         - 5.8543169760308689e-01
         - -1.2045160355973751e-02
         - -1.7842761655627265e-01
         - 1.1464628145760976e-01
         - 2.8786723025223265e-01
         - -1.0852341071655645e+00
         - 2.7600534483058942e-01
         - 3.4510852660991777e-02
         - 9.1612975505177285e-01
         - -5.2276905811093610e-01
         - -2.9189899250624995e-01
         - -6.1486523702602836e-01
         - 1.0394350515122623e-01
         - 2.2348979297967159e-01
         - -4.1028318499231622e-02
         - -3.2221756628831488e-01
         - 1.2232397752483316e-01
         - 1.5398795254998621e+00
         - -1.7289973122613786e+00
         - 1.8154922424504910e-01
         - -2.4952729949950278e-01
         - 5.6694739069740166e-02
         - -2.4859254547962364e-01
         - -1.5835059680531305e-01
         - 2.5205440936135604e-01
         - -1.6298846972749245e-01
         - -1.2199910448560267e-01
         - 1.9177650627730838e-01
         - -9.1967521918192374e-01
         - 3.7206627833205108e-01
         - -1.4450911418262993e-01
         - -1.5641284943374925e-01
         - 1.5897417804407368e-01
         - 1.9886190628431638e-01
         - 1.1196893434386941e-01
         - 1.0738129135160385e-02
         - 3.9990120693929335e-02
         - -2.6217971805511447e-01
         - -1.0478059076202857e+00
         - 1.8376693361792937e-01
         - 2.6554668031624751e-01
         - 4.6472455473027655e-02
         - -7.5158935316887365e-01
         - 4.1475123671967928e-02
         - 2.5777855741129857e-01
         - -1.5411652607881487e+00
         - -1.0693205357114885e-02
         - 2.1184218093734314e-01
         - 3.6970775771828129e-01
         - -4.7714688124902471e-01
         - 8.0326790195541009e-01
         - -1.3600897925839292e-01
         - 3.9274581809336899e-02
         - -2.9135730561866763e-02
         - -3.1739481749707157e-02
         - 1.6722057918232324e-03
         - -2.2764038443834591e-02
         - 1.0884799417459674e+00
         - -1.1183478018207818e+00
         - -6.9023870665812045e-02
         - 1.2869926593071801e+00
         - 5.4767145633319331e-02
         - -1.1669947847811922e-01
         - 6.7675841813553114e-02
         - -2.7626539409037365e-01
         - 1.2013402876694849e-01
         - 2.0860480288785052e-02
         - 1.0045864702298424e-01
         - 3.9493247565630510e-02
         - -2.4171193119062920e-01
         - -3.4826943351377293e-01
         - -6.8345763718974117e-01
         - -5.6811440966145543e-02
         - 5.6719985372758977e-02
         - 7.7527749437444754e-02
         - 1.7996969141122141e-01
         - -1.9276442971622779e-01
         - -4.0572302488543083e-01
         - -6.9254346352423968e-01
         - 1.2118913137674900e+00
         - -1.0365269129110011e-01
         - 5.0880166841005173e-02
         - -5.7419055857901624e-01
         - 1.0857753303566735e-01
         - 7.6773933623553017e-02
         - -9.6716789041227302e-01
         - 1.1118771461016511e-01
         - 3.3341344973797066e-02
         - 2.4839038173460723e-01
         - -8.1650104191773076e-01
         - -1.4510888824169061e-02
         - 2.0352028820273507e-01
         - -8.1415233557115316e-02
         - 1.4282307296703782e-02
         - 2.9624700632014678e-01
         - 3.1779897056565626e-01
         - -2.5490704970061118e-01
         - 7.7568139558916749e-01
         - -8.7549077726342983e-01
         - 6.9810744396024460e-01
         - -4.2962283531195811e-01
         - -7.4151860626087585e-02
         - -8.7485322866448023e-01
         - 1.2623276918008997e-01
         - 4.9665269633195425e-02
         - -1.6464329339128742e-01
         - 2.0510913372907230e-01
         - -5.6079093601115522e-02
         - 4.9315872873202199e-01
         - -9.3067600233223058e-01
         - 3.2682453255643362e-01
         - 2.4362230276135000e-01
         - -5.6133199457308533e-02
         - 1.0400393441274042e-01
         - 2.8892682766276889e-01
         - 2.7978733777214881e-01
         - -3.5100215554263547e-01
         - 9.0364370090265378e-01
         - -7.2901777917345034e-01
         - 7.4876688133160751e-01
         - -2.1719297865953324e-01
         - -1.7780469657549782e-02
         - -3.3552723907577064e-01
         - 5.3641997786144827e-02
         - -7.5154473106077146e-02
         - -1.7257116068925642e+00
         - 3.3826984772390190e-01
         - -4.6216228837012818e-02
         - 6.6477557511206098e-01
         - -5.1483378827321913e-01
         - 8.6319550615196194e-02
         - 3.1249512923233974e-01
         - -7.2679633926536105e-02
         - 3.1518475132257201e-01
         - 2.3164653797654869e-01
         - 1.4074519041366013e-01
         - -1.1201077228195576e-01
         - 4.8937639438235903e-01
         - -3.2446196853389225e-01
         - 3.3193460093688687e-01
         - 2.2174349782008518e-01
         - -4.3866715402527090e-04
         - -4.1467332568168991e-01
         - 3.7387443512850747e-02
         - 2.0963383428172843e-02
         - -1.5113628268623211e-01
         - 1.8953552834367710e-01
         - 1.1121993348049823e-01
         - 3.3013378823645817e-01
         - -3.6667390731221378e-01
         - 2.1677615888264831e-01
         - 1.6131036914854753e+00
         - -6.7794492314553909e-02
         - 1.2107714463033700e-01
         - 6.5876351162353741e-02
         - -7.6870904343805599e-02
         - 5.7855454631204471e-02
         - 7.7940041108179270e-01
         - 1.1933615881695371e-01
         - 1.0890401696768759e+00
         - -3.3966559182439439e-02
         - -1.2899409345291645e-02
         - 2.3044830097391678e-01
         - 1.1679102870386375e-01
         - -5.0457221717815792e-01
         - 2.7373235950922570e-01
         - -5.5046001935014653e-02
         - 6.6208225755170231e-03
         - 9.2186534266329334e-02
         - 4.6926619504518007e-02
         - 9.5646180084960397e-02
         - -7.1320916652209465e-02
         - -4.0639913112026464e-02
         - 1.1848767311593184e-01
         - -5.2497942057577428e-02
         - 4.3211067927076734e-02
         - 1.8461735824752129e-01
         - -2.4359421332893641e-01
         - -9.1452118703400798e-01
         - 9.6702693808475171e-01
         - -4.8871349849567336e-01
         - 1.2164187387578758e-03
         - 3.1491146225522304e-01
         - -2.1620143497762156e-02
         - -3.5165512528058485e-01
         - 1.2953521786615132e+00
         - -1.8778226078566135e-01
         - 2.5301009848977744e-03
         - -1.6656093224581617e-01
         - 4.7712400591696149e-03
         - 3.3175511742160935e-01
         - -1.0029413002269765e+00
         - -1.0020427437855231e-01
         - 2.0811221218134951e-01
         - 1.6312008780679574e-01
         - 1.3097543068763515e-01
         - -8.3565487358021134e-02
         - -7.0711710998584842e-01
         - 8.0065026813860796e-02
         - 5.7065818469857688e-01
         - -9.4504071912614812e-02
         - 4.1171686353601307e-02
         - -1.7615681427176863e-01
         - 1.4821772961341126e-01
         - 2.3368539996532636e-01
         - -1.2764516216218475e-02
         - -6.9246721207807532e-02
         - -2.7902941182794905e-01
         - 5.5019955610222748e-01
         - -3.4426059076269644e-01
         - 3.7570890664365508e-01
         - -6.3090903425284151e-01
         - -1.2257681128114337e-01
         - 4.4521838322271440e-02
         - 4.4798424537812652e-02
         - 2.1053909926489964e-01
         - 2.3625237591396772e-01
         - -1.7203649948988882e+00
         - 1.8142737776000414e-01
         - -1.2072407178205734e-01
         - -4.8886830275857279e-01
         - -6.6213221940449082e-02
         - -9.8812434938395310e-02
         - 1.2745956497305129e-02
         - 7.5688223205785776e-02
         - -7.8619286546123074e-02
         - -9.4492998498005007e-02
         - -1.1096873032175357e-01
         - 3.4139141446132615e-01
         - -1.7712022977034689e-01
         - 3.2628260205647336e-01
         - -2.9707062814913876e-01
         - -7.4026216206203718e-03
         - -7.6614558714623554e-02
         - -5.7816849773786393e-02
         - -2.2928612650001406e-01
         - 2.9806782106094604e-01
         - 2.7974115435633135e-01
         - 1.5060776934662157e+00
         - 1.3483312693854921e+00
         - -3.7339241277733158e-02
         - -5.4068318820268534e-03
         - 3.9111823995634465e-01
         - -1.9749260654867876e-01
         - -4.9658044765383869e-01
         - -1.7039455318665589e-02
         - 7.8021718062384143e-02
         - -9.0475640147563319e-02
         - -3.4969645850738695e-01
         - 5.6451856662439670e-01
         - -3.5153537145718332e-02
         - -3.1613493326889475e-01
         - -2.2367194547950814e-01
         - -2.9035457910957679e-03
         - -1.7763897502360718e-01
         - 1.7339583033190623e-01
         - 4.4937447000192414e-02
         - -4.5609875025197666e-01
         - -1.2538640406925573e-02
         - 1.7550152625387128e-01
         - -1.2675173480383675e-01
         - 1.7393993250264948e-02
         - 8.9636518015884931e-02
         - 8.4580870879106762e-02
         - -1.5624064620118842e-02
         - -1.5373584326956073e+00
         - -3.0091580745637614e-01
         - -2.4781211844076989e-01
         - 3.0252132474710258e-01
         - -9.4080419468924703e-02
         - 1.2128888456899964e-01
         - 4.0722436977942984e-02
         - -1.1651924974379116e-01
         - 7.4156830023452636e-02
         - 6.6234028951390939e-02
         - -3.0682163949221336e-01
         - 7.4681489725307443e-02
         - 1.0952111630750843e+00
         - -4.3300523527229362e-01
         - 1.2604690595517207e-01
         - -2.5350649491613836e-01
         - 5.8498359727093649e-02
         - 5.7547197968028918e-01
         - -1.2935464674030914e-01
         - -3.9881346780429333e-01
         - 8.1527742507808545e-02
         - 2.0903594578510340e-01
         - -1.3386217211670612e-01
         - -2.8412310587971285e-01
         - 5.6037859414127644e-01
         - -3.4392726166084884e-03
         - -6.9516108877396310e-01
         - -1.3298583510909193e-01
         - 9.3958040153968289e-02
         - 1.2806435643757491e-01
         - -5.3690026369669804e-02
         - 2.9113717656849905e-02
         - 3.6339845872366855e-01
         - -5.2958471125161632e-01
         - -1.2742173389188292e+00
         - 8.8876999418933944e-01
         - 1.1786441357448380e-02
         - 4.1149787529035126e-01
         - 4.6302255218497540e-02
         - -8.3878525496371564e-02
         - -1.0045372798348402e+00
         - -1.5418583713001029e-02
         - -9.1169801630612127e-02
         - 7.5295968163956353e-02
         - 3.0066159126847275e-01
         - 2.2036292118589673e-01
         - -1.8095480480806987e+00
         - 8.5086029764505314e-02
         - 1.1946940455321703e-01
         - 2.7370897522187004e-01
         - -1.4527549244246740e-01
         - -1.2076005269710366e-01
         - -1.4754297897208546e+00
         - -8.0835382261068610e-04
         - -6.7063138597596483e-01
         - -7.9904448299243036e-01
         - 4.4036351057234399e-03
         - 6.5100327969230276e-01
         - -5.7256234099514941e-02
         - -2.0165354829311799e-01
         - 9.6283206453303782e-01
         - 1.6957946321327383e-01
         - -1.3867781783207728e-01
         - -1.1672471746718584e-01
         - 3.2907602451481099e-01
         - 3.0046145954260806e-01
         - -1.2628497061771544e+00
         - 1.0584161131114823e-01
         - 5.6252300061986629e-02
         - 2.1917593329374824e-01
         - -2.5868062597093477e-01
         - 2.1781069831679292e-02
         - -8.2143190882490702e-01
         - -5.0067430395545931e-01
         - 3.5892233146084290e-01
         - -1.3745400875178793e-01
         - 3.7101738155420491e-02
         - 4.5195106414872727e-01
         - -1.3934423789510458e-01
         - -6.7926058504777204e-02
         - -4.6946660567280352e-01
         - 4.8544045230217281e-01
         - 5.1195546632624586e-02
         - -7.3859120934351069e-02
         - 3.7227321012943421e-01
         - -4.9756141267010626e-02
         - 4.5325532593873452e-01
         - -2.5265065289486438e-01
         - 1.1122294763134752e-01
         - 2.5212590014409902e-01
         - -5.2230592635393813e-01
         - -2.2884503950174473e-01
         - -8.9214400462466828e-02
         - -4.1396737925250299e-01
         - 1.2058116979363594e-01
         - 3.5500279161659376e-02
         - -7.8607257320711929e-02
         - 3.0072857157894456e-01
         - -7.2011268585798580e-02
         - -2.1588185684302641e-01
         - -6.5407490050412498e-01
         - 3.0787599617182809e-01
         - -1.5441931384857760e-01
         - 7.4846088643199984e-02
         - 3.7669555525678189e-01
         - -2.1251777042007192e-01
         - 3.3119880811724414e-02
         - -1.8177232543435781e-01
         - 1.7044107556631171e-02
         - -1.9374759311733152e-02
         - -7.3549526038214397e-01
         - -2.5718289688702295e-01
         - 4.3540197138915598e-01
         - 1.8548659559759173e-01
         - -9.5493472784188249e-01
         - -6.4124322229372310e-01
         - -1.0672735877314915e-01
         - 3.0830532223538798e-01
         - -1.2504343549192026e-01
         - -2.4529063024174658e-01
         - -2.9818027582722156e-01
         - -1.1163077400872950e-02
         - -9.7502272605040241e-02
         - -8.3682566690900440e-01
         - 8.5947807115065133e-01
         - -8.2479079741256234e-01
         - 9.4080773934887862e-01
         - -2.5122953340026888e-01
         - 3.1471513962534413e-02
         - -1.4020129637153136e-01
         - -4.0938602330711915e-01
         - -3.9026667401604359e-01
         - 8.2992787693140646e-01
         - 2.7588812171621369e-01
         - -1.5848390356614546e+00
         - 4.7011353103242393e-01
         - 1.5228603348130728e-02
         - 2.8277220719956858e-01
         - -6.0343871399792266e-03
         - -4.3385346390239071e-01
         - -2.7729150740435909e-01
         - 3.6304140313656086e-02
         - -1.8031923787268345e-01
         - 3.3761732135677036e-01
         - 5.8533759288666054e-01
         - -5.9855372317595390e-01
         - 5.8545073795033953e-01
         - -1.7516745226541477e-01
         - 4.1003220384555984e-02
         - 7.5151430868803312e-02
         - -4.8584516424786295e-01
         - -3.1217799937993718e-01
         - 2.3298447139104195e-01
         - -9.9835395764815127e-01
         - -4.5586804466959879e-01
         - -1.0296042097479428e+00
         - -6.7723591916781581e-02
         - -8.6060607552708834e-02
         - -1.3643163841217273e-01
         - -1.1537602158530617e-01
         - 2.4025780154190279e-01
         - 2.0654706055778749e-01
         - -1.6450274954223576e-02
         - -1.6851049547654579e-01
         - 4.7259645432243197e-01
         - -5.6112167265733937e-01
         - -6.1228826493159316e-01
         - -3.6409569411430026e-01
         - 1.5197970264760491e-01
         - 1.9691014558536640e-01
         - -8.9747693200504172e-02
         - -5.7071249012392311e-01
         - 2.0480372868676575e-02
         - -2.9826900187179112e-01
         - -1.0521314062298059e+00
         - -4.0804353617820882e-01
         - 6.2141092946115500e-02
         - -2.4763877760479398e-02
         - -2.9912598483909720e-02
         - 4.8423716957957059e-02
         - 2.5919373708818455e-01
         - 2.2070729992978991e-01
         - -2.4195485159858368e-01
         - 8.6037415552518648e-01
         - 1.0147947388958788e-01
         - -3.7767552251267777e-01
         - 4.4413550665624635e-02
         - -2.1942319934435933e-01
         - 2.7066563861769893e-02
         - 1.1376391174118905e-01
         - -3.6719399565179700e-01
         - -2.8052256985664070e-01
         - 1.2547997357080010e+00
         - -1.9882094878597201e-01
         - 1.5433974093547083e+00
         - 2.8891504319816567e-02
         - -3.4137028177206187e-02
         - 3.7042635741063845e-01
         - -1.5672779608870779e-01
         - -2.5780071397906262e-01
         - -1.6496515642267922e+00
         - 1.9761144828717123e-01
         - -1.3030626450911859e-01
         - 2.2323719317439708e-01
         - 5.4824585838035267e-01
         - -3.9212181030536375e-01
         - -5.5762293847345423e-01
         - -5.8329183855320058e-02
         - 1.6644939020822763e-01
         - 2.9433934610300172e-01
         - -1.7013253669134035e-01
         - -2.3603302610695226e-01
         - -1.0756840484502697e+00
         - 1.4866750671819577e+00
         - 9.7048033483248164e-01
         - -9.4508896463713221e-01
         - -1.7714180542450653e-02
         - -6.6234352633216739e-02
         - -8.5557562499760098e-02
         - 5.0579764976421027e-02
         - 4.3102449724525665e-01
         - 3.8433290002822640e-01
         - -4.5383147581309437e-02
         - 8.6176812774691955e-02
         - 2.4237588686582581e-01
         - 5.8236091327956548e-02
         - -2.6768444512057715e-01
         - -6.2185778065084144e-02
         - 6.1246821945300178e-02
         - 1.2094599600907452e-01
         - -1.5952151609123794e-01
         - -1.3380205295950656e-01
         - -7.3253374093106838e-01
         - 1.2960586406488124e+00
         - 6.2675688231740878e-01
         - -1.0970538993643478e-01
         - -2.3609816552345866e-02
         - 7.5966581814699274e-01
         - -9.0524981920469427e-02
         - -5.1338190292809616e-01
         - 8.1271359855512537e-01
         - -7.8869407386206736e-03
         - -2.3662246045080802e-02
         - -6.1933317663068393e-02
         - 4.0339745519158526e-01
         - -1.4679246853837688e-02
         - 1.6331443463663101e-01
         - -4.1974589857188777e-01
         - 2.6794716466292622e-02
         - -9.6215018257097135e-02
         - 2.5942437670721680e-01
         - -4.0451879866570822e-01
         - -2.2344924088451609e-01
         - 8.6139827073647002e-01
         - -8.6154766175737663e-01
         - -6.2696213569139858e-01
         - -1.0668749914659251e-02
         - 4.7412645187097968e-01
         - 7.8488254526740603e-02
         - -3.3655168373246264e-01
         - -9.2834698312933994e-01
         - -3.9465169828045227e-01
         - -4.4645062150284237e-01
         - 6.7944321412926489e-01
         - -2.8937619558285732e-01
         - 1.4430270348953395e-01
         - 1.3108665259076964e+00
         - -6.0934988278783457e-02
         - -1.0590905019299669e-01
         - -2.4920205624857347e-01
         - -5.4600174802610875e-02
         - 1.7398365608034355e-01
         - 1.8638296698468882e-02
         - 3.7675405004674693e-02
         - -4.3742244152738119e-01
         - 3.4192394818725846e-01
         - -9.4697844855668959e-03
         - 6.0863790409604013e-01
         - -1.7910468841684682e-01
         - -8.3411458258804838e-01
         - 6.9771612326276788e-01
         - -2.9359262638364764e-01
         - 2.6370568232443471e-02
         - -1.2723382635355168e-01
         - 5.9001053165228656e-01
         - -1.9701451896083458e-01
         - 6.0065367925917124e-01
         - -3.7273666035982012e-01
         - -6.5818313533192504e-04
         - -1.8447197146016905e-01
         - 5.0032766039871135e-01
         - -3.7792177151521927e-01
         - -1.5532183540210986e+00
         - -2.9073798974707216e-01
         - -6.0866198669452587e-01
         - -4.4528215348523764e-01
         - -2.3558121863353577e-02
         - 9.5137386294420409e-03
         - 1.2713833143982330e-02
         - -2.7573642112882840e-01
         - -1.4798773506057465e+00
         - -5.4138054166668292e-01
         - -3.3268309953397646e-01
         - 7.2109477665128541e-01
         - -6.5101312039678916e-01
         - -1.6198114179453247e-02
         - 1.4401136675900705e+00
         - -1.7811470271247773e-01
         - -5.3277721203984670e-02
         - -1.0415872555568931e-01
         - 7.2201670876034865e-02
         - -2.6282402063152649e-01
         - 5.1834738743606867e-01
         - -1.7551367655075281e-01
         - -6.9970371169819523e-01
         - -3.9281554319431744e-01
         - -4.3348060497953582e-02
         - 2.3387845685574934e-01
         - -3.9624683675488466e-03
         - -5.0695694469883734e-01
         - -1.9113537563452690e-01
         - -1.1249009207623586e-01
         - -2.5822352355382472e-01
         - -1.0383081386120234e-01
         - 5.3795215311623318e-02
         - -3.0015828654129606e-01
         - -4.4416008108757626e-01
         - -1.8055989593641172e-01
         - -7.3180876544498244e-02
         - -7.3749546231041949e-02
         - 2.4661141985132543e-01
         - -3.8284832948437170e-01
         - 1.2583513075311850e-01
         - 5.6762205685112102e-02
         - 4.9881723876493278e-01
         - -7.1542838236096085e-01
         - 8.5873123856836341e-03
         - 4.9166507796782527e-01
         - -2.0367235735558401e-01
         - -6.3333617699898204e-01
         - 8.5407796218426688e-02
         - -1.3943640987765782e-01
         - -1.7617838325574478e-01
         - -7.4248708769630023e-01
         - -6.9211657132611654e-02
         - -4.2867565617868220e-01
         - 1.6303839318233215e-01
         - -3.2255732617590910e-01
         - 5.7387921261656899e-02
         - -4.6056268894097072e-02
         - 2.4958152469059031e-01
         - -4.7662059441286486e-01
         - 1.0036499997165682e+00
         - 7.5951361849071886e-01
         - -5.9429315400399441e-01
         - -4.6632754568652429e-01
         - 2.5410848805814869e-02
         - 4.0499636051457089e-01
         - -1.0711745199014053e-01
         - -4.6345399019519534e-01
         - -3.4127536683322975e-02
         - -1.8373165830303903e-01
         - -2.8923723248672556e-01
         - -2.7691944333006696e-01
         - -1.5647406319512036e-01
         - -5.6076569594427661e-01
         - 3.6882825064096381e-01
         - -2.1702037211927941e-01
         - 5.6877704347716468e-02
         - -2.1004133941485928e-01
         - 3.7283224485589683e-01
         - -3.7411641690850872e-01
         - 1.1383452541821082e+00
         - 3.7955395705201234e-01
         - 6.4712982076144088e-01
         - -3.1480056127765621e-01
         - 6.9850906206138694e-02
         - 8.1540544203122589e-01
         - -9.7781298805725461e-02
         - -6.7136833130886542e-01
         - 1.5956740597940591e+00
         - -2.1586949447785619e-01
         - -1.2883331967331535e-01
         - -4.1293190115563860e-01
         - 1.2916284389696439e-01
         - -2.0213466788055912e-01
         - 6.4238133415019116e-01
         - -2.5150616770004453e-02
         - 6.6750435109754355e-02
         - 1.4686865798736604e-01
         - 3.5093458642794012e-01
         - -2.6672134867976766e-01
         - 1.9205773043169963e-01
         - 5.7816631189262846e-01
         - 1.5595257088738781e+00
         - -7.6084777478183874e-01
         - -2.0887263153302627e-02
         - 2.9116425333712093e-01
         - -1.3790410080287355e-01
         - -3.6775094815359105e-01
         - 1.2227843482909868e+00
         - 1.4802731770960234e-01
         - 1.2236438462535774e-02
         - 3.0315758830737144e-02
         - -1.0704039326990028e-01
         - 1.8430505096141695e-02
         - 3.9182009569666687e-01
         - -1.4447004809407218e-01
         - 4.6651124694626622e-02
         - -3.2231965508703205e-03
         - 2.0714410452567167e-01
         - -3.7680623460418738e-01
         - 5.5315781935042496e-01
         - -1.8334498868051259e+00
         - -9.6252147122738718e-01
         - -5.5496629360215466e-01
         - 3.3576807024366662e-02
         - 3.2774715317491870e-01
         - -1.7700459655257944e-01
         - -1.2335440390226562e-01
         - -9.2658192447137924e-02
         - -5.5781422593154120e-02
         - -4.0988983413699609e-02
         - -7.4034135461402129e-01
         - 3.7691789089333724e-02
         - 2.3216284225955994e-01
         - -2.7006089377214898e-01
         - -1.1941233385893978e-01
         - 2.0027576293186047e-01
         - 3.3838216266310596e-02
         - -1.4397744259209472e-01
         - -2.3811565402014281e-01
         - 4.0019100529090040e-01
         - -1.4507044342074141e-01
         - -6.8667522264611136e-01
         - 2.5100935468626743e-02
         - 4.3299240577792442e-02
         - 2.0188487943308403e-01
         - -3.6717977495868781e-01
         - -1.0692480092957085e-01
         - -5.0573610595289831e-01
         - 5.0148770472376841e-02
         - -6.6081454477101093e-02
         - -8.3052662082317918e-01
         - 2.0489872743276089e-01
         - 3.4411698933850943e-01
         - -2.0771564903486797e-01
         - -9.9717528895132662e-02
         - 7.4466157505538783e-02
         - 1.2748803947952453e-01
         - -6.6040933983061031e-02
         - -1.5618617546627334e-01
         - 1.7988703657328842e-01
         - -5.4356471460253464e-01
         - -9.5791395423947057e-01
         - -3.2436665812927379e-01
         - -7.1526977111409651e-02
         - 7.9130942462470821e-02
         - -3.2281903580443616e-01
         - -3.1320916477398097e-02
         - 3.1027569988267256e-01
         - 6.1286106529996803e-02
         - -1.1985972149364847e-01
         - -1.2097071278783489e+00
         - 2.5883773700160162e-01
         - -7.4861963174933280e-02
         - 2.9685670611019224e+00
         - -1.0267920250624643e+00
         - -4.3551289178476660e-01
         - -5.1308244572813777e-01
         - 1.0081073392770163e+00
         - -1.1722273166502384e+00
         - 4.9928510750529376e-01
         - -9.5156982905557885e-01
         - 3.7594305168432607e+00
         - -1.2616368205705524e+00
         - -1.7925712713536010e-01
         - 5.9812481332461620e-01
         - 4.3648285420690131e-01
         - -1.9027880064475283e-01
         - 3.9430265755379730e+00
         - -6.1794339503899642e-01
         - -1.1576687541033077e+00
         - 1.2614508733262428e+00
         - -1.3288955301851471e-01
         - 4.5896419135362543e-01
      -
         - 1.0168159189437471e+00
         - -9.3391628950121119e-01
         - -4.2134414521597618e-01
         - -2.8444347111476287e-01
         - -5.8454281514288498e-01
         - -3.1049141175829248e-01
         - 7.9535443307773368e-01
         - 2.8954656040038340e-01
         - -3.8984853078785014e-01
         - 1.1085453036228643e-01
         - 3.2531609781372500e-01
         - 2.5980239341280100e-02
         - -1.1459533728110893e+00
         - 1.1456700419030785e+00
         - -8.6097171251504179e-01
         - 8.6412361913877811e-01
         - 1.6494260549731379e+00
         - -1.6474676934909820e+00
         - 1.2878089400550892e+00
         - -1.3639127159081352e+00
         - 6.2771970830744661e-01
         - 6.7199929857336049e-01
         - 5.6838409500856979e-01
         - -4.4550375370936590e-01
         - -3.6421176697192398e-01
         - 4.0582255033865755e-02
         - -4.4290521895808915e-01
         - 5.2771792903919901e-01
         - 7.6031956506874754e-01
         - -7.4748458311099808e-01
         - 3.1115466873268388e-01
         - -8.1487361288311877e-01
         - 1.2448011317038654e-01
         - 3.7471728253815861e-01
         - -4.2024795821413430e-01
         - 4.3022736396507427e-01
         - 2.5228279208688825e-01
         - -4.3185229240864997e-01
         - -6.0559049453323444e-01
         - 5.6191056054944888e-01
         - -1.6176631936256793e+00
         - 1.8170376071157959e+00
