%YAML:1.0
---
opencv_ml_ann_mlp:
   format: 3
   layer_sizes: [ 7, 10, 2 ]
   activation_function: SIGMOID_SYM
   f_param1: 6.6666666666666663e-01
   f_param2: 1.7159000000000000e+00
   min_val: -9.4999999999999996e-01
   max_val: 9.4999999999999996e-01
   min_val1: -9.7999999999999998e-01
   max_val1: 9.7999999999999998e-01
   training_params:
      train_method: BACKPROP
      dw_scale: 9.9999997764825821e-03
      moment_scale: 9.9999997764825821e-03
      term_criteria:
         iterations: 100000
   input_scale:
      - 4.8682030391380122e+00
      - -1.6495283332289279e+00
      - 8.4499829734422924e+00
      - -1.4083305334456910e+00
      - 1.0188372009115033e+01
      - -9.7618821829178326e-01
      - 1.1976089735604209e+01
      - -1.2728077025730387e+00
      - 6.6489422017489863e+00
      - -8.1642825838549515e-01
      - 1.6233929541689584e+01
      - -3.3977992682826663e-01
      - 1.4369782658313769e+01
      - -4.1438443881137421e-01
   output_scale:
      - 5.2631578947368418e-01
      - 4.9999999999999994e-01
      - 5.2631578947368418e-01
      - 4.9999999999999994e-01
   inv_output_scale:
      - 1.8999999999999999e+00
      - -9.4999999999999996e-01
      - 1.8999999999999999e+00
      - -9.4999999999999996e-01
   weights:
      -
         - 9.9214574462998834e-02
         - -3.1017720106533242e-01
         - 1.9732052637879984e+00
         - 5.6453815219546488e-01
         - 1.3079100961568630e+00
         - 6.7803313085560435e-01
         - 1.2379158074907786e+00
         - 7.3699353688761271e-01
         - 1.9472001986311722e+00
         - -1.6539463859364472e+00
         - 2.0587161513387037e-01
         - -2.7085305813234961e-01
         - 2.8230390675992960e+00
         - 5.5132223511183798e-01
         - 1.0155296535642582e+00
         - -1.7148847456565246e+00
         - 1.2841720135786538e+00
         - 7.5415380201068569e-02
         - 1.1948494647079775e+00
         - 1.7267250077858978e+00
         - -1.2106919237871330e-01
         - 1.6756943399244401e-01
         - -8.9614128955959260e-01
         - -2.9304155610279825e-01
         - 8.3860022959392447e-02
         - 4.0874731037591018e-02
         - -2.7619338967915374e-01
         - -7.9972587524189176e-02
         - -6.0633700177134708e-01
         - -3.7287730835750993e-01
         - -3.6099771101859396e-01
         - -4.1097859608752868e-02
         - -5.1954890177162190e+00
         - 1.8088459231401201e-02
         - -1.4323720705148100e+00
         - 1.6084931596654215e+00
         - -1.2725163346416291e+00
         - -1.4518545695037670e+00
         - -3.9977755532886392e+00
         - -5.8744165392021419e-01
         - 8.8972328343554530e+00
         - 2.3663352718757191e-01
         - 1.8074632145082208e+00
         - -4.7915542326275457e-01
         - -3.4917439008155443e-02
         - 1.3226280872066885e+00
         - -3.1688468987728624e-01
         - -7.1844511790911170e-02
         - 2.2910358537496944e+00
         - 4.4718799410173533e+00
         - 1.0174968633943982e+00
         - 1.2111454888812259e-01
         - -1.6230642782015137e-01
         - -2.0141838650601668e-01
         - -5.4817677472913549e-03
         - 1.0725935470651689e+00
         - -9.4547035997967252e-02
         - -1.1411523991319215e+00
         - 8.8113022990365497e-02
         - 1.0872212960434968e+00
         - 8.1357076039123377e-01
         - 1.9267498201308711e-01
         - -1.5798843271692633e+00
         - -3.1306815936876892e-01
         - 4.2546805665574022e-01
         - -2.3658292253180410e-01
         - 2.1815777508270379e-01
         - -8.5168282366326875e-01
         - -1.5298538804692070e+00
         - 1.6013008416309875e+00
         - 8.6243044102664648e+00
         - 7.7903831451418371e-01
         - -3.7461988944778719e+00
         - -6.1569771342661694e-01
         - -8.9993037440379020e-01
         - 4.7256199085286515e-01
         - 1.9634510249969761e+00
         - -9.6721242368475124e-02
         - -3.7208789852254420e+00
         - 2.6573428937244823e+00
      -
         - -3.8355640796286044e+00
         - 3.8423445737975110e+00
         - -2.1842000015330745e-01
         - -9.3286704893236549e-01
         - 2.2579974697795868e+00
         - -2.2525990483151759e+00
         - -1.0758104302870053e+00
         - 3.7403504974582719e-01
         - -7.6557611205564391e-01
         - 8.0237828222836249e-01
         - 1.0664931889553260e+00
         - -1.0837347002237165e+00
         - 1.1578496495365878e+00
         - -1.1508027262877791e+00
         - 8.2056979650504103e-01
         - -8.3728168569163863e-01
         - -2.5482646944175742e+00
         - 2.5332433285186151e+00
         - 4.6023233351744786e-01
         - -4.6904413870920642e-01
         - 1.7580848623707357e+00
         - -1.4975707278855015e+00
