%YAML:1.0
---
opencv_ml_ann_mlp:
   format: 3
   layer_sizes: [ 3, 7, 2 ]
   activation_function: SIGMOID_SYM
   f_param1: 6.6666666666666663e-01
   f_param2: 1.7159000000000000e+00
   min_val: -9.4999999999999996e-01
   max_val: 9.4999999999999996e-01
   min_val1: -9.7999999999999998e-01
   max_val1: 9.7999999999999998e-01
   training_params:
      train_method: BACKPROP
      dw_scale: 9.9999997764825821e-03
      moment_scale: 9.9999997764825821e-03
      term_criteria:
         iterations: 100000
   input_scale:
      - -6.2774385622041925e+66
      - -6.2774385622041925e+66
      - -6.2774385622041925e+66
      - -6.2774385622041925e+66
      - -6.2774385622041925e+66
      - -6.2774385622041925e+66
   output_scale:
      - -6.2774385622041925e+66
      - -6.2774385622041925e+66
      - -6.2774385622041925e+66
      - -6.2774385622041925e+66
   inv_output_scale:
      - -6.2774385622041925e+66
      - -6.2774385622041925e+66
      - -6.2774385622041925e+66
      - -6.2774385622041925e+66
   weights:
      -
         - -6.2774385622041925e+66
         - -6.2774385622041925e+66
         - -6.2774385622041925e+66
         - -6.2774385622041925e+66
         - -6.2774385622041925e+66
         - -6.2774385622041925e+66
         - -6.2774385622041925e+66
         - -6.2774385622041925e+66
         - -6.2774385622041925e+66
         - -6.2774385622041925e+66
         - -6.2774385622041925e+66
         - -6.2774385622041925e+66
         - -6.2774385622041925e+66
         - -6.2774385622041925e+66
         - -6.2774385622041925e+66
         - -6.2774385622041925e+66
         - -6.2774385622041925e+66
         - -6.2774385622041925e+66
         - -6.2774385622041925e+66
         - -6.2774385622041925e+66
         - -6.2774385622041925e+66
         - -6.2774385622041925e+66
         - -6.2774385622041925e+66
         - -6.2774385622041925e+66
         - -6.2774385622041925e+66
         - -6.2774385622041925e+66
         - -6.2774385622041925e+66
         - -6.2774385622041925e+66
      -
         - -6.2774385622041925e+66
         - -6.2774385622041925e+66
         - -6.2774385622041925e+66
         - -6.2774385622041925e+66
         - -6.2774385622041925e+66
         - -6.2774385622041925e+66
         - -6.2774385622041925e+66
         - -6.2774385622041925e+66
         - -6.2774385622041925e+66
         - -6.2774385622041925e+66
         - -6.2774385622041925e+66
         - -6.2774385622041925e+66
         - -6.2774385622041925e+66
         - -6.2774385622041925e+66
         - -6.2774385622041925e+66
         - -6.2774385622041925e+66
